digraph Tree {
node [shape=box, fontname="helvetica"] ;
edge [fontname="helvetica"] ;
0 [label="flee <= 1.5\nentropy = 0.81\nsamples = 2930\nvalue = [2200, 730]\nclass = No"] ;
1 [label="armed <= 11.0\nentropy = 0.495\nsamples = 820\nvalue = [731, 89]\nclass = No"] ;
0 -> 1 [labeldistance=2.5, labelangle=45, headlabel="True"] ;
2 [label="age <= 31.5\nentropy = 0.811\nsamples = 4\nvalue = [1, 3]\nclass = Yes"] ;
1 -> 2 ;
3 [label="entropy = 0.0\nsamples = 3\nvalue = [0, 3]\nclass = Yes"] ;
2 -> 3 ;
4 [label="entropy = 0.0\nsamples = 1\nvalue = [1, 0]\nclass = No"] ;
2 -> 4 ;
5 [label="threat_level <= 1.5\nentropy = 0.486\nsamples = 816\nvalue = [730, 86]\nclass = No"] ;
1 -> 5 ;
6 [label="armed <= 40.0\nentropy = 0.5\nsamples = 781\nvalue = [695, 86]\nclass = No"] ;
5 -> 6 ;
7 [label="race <= 4.5\nentropy = 0.438\nsamples = 520\nvalue = [473, 47]\nclass = No"] ;
6 -> 7 ;
8 [label="flee <= 0.5\nentropy = 0.305\nsamples = 276\nvalue = [261, 15]\nclass = No"] ;
7 -> 8 ;
9 [label="age <= 29.5\nentropy = 0.43\nsamples = 125\nvalue = [114, 11]\nclass = No"] ;
8 -> 9 ;
10 [label="body_camera <= 0.5\nentropy = 0.567\nsamples = 60\nvalue = [52, 8]\nclass = No"] ;
9 -> 10 ;
11 [label="age <= 28.5\nentropy = 0.469\nsamples = 50\nvalue = [45, 5]\nclass = No"] ;
10 -> 11 ;
12 [label="age <= 19.5\nentropy = 0.359\nsamples = 44\nvalue = [41, 3]\nclass = No"] ;
11 -> 12 ;
13 [label="threat_level <= 0.5\nentropy = 0.722\nsamples = 10\nvalue = [8, 2]\nclass = No"] ;
12 -> 13 ;
14 [label="age <= 18.5\nentropy = 0.544\nsamples = 8\nvalue = [7, 1]\nclass = No"] ;
13 -> 14 ;
15 [label="race <= 1.5\nentropy = 0.811\nsamples = 4\nvalue = [3, 1]\nclass = No"] ;
14 -> 15 ;
16 [label="entropy = 0.0\nsamples = 1\nvalue = [1, 0]\nclass = No"] ;
15 -> 16 ;
17 [label="age <= 16.5\nentropy = 0.918\nsamples = 3\nvalue = [2, 1]\nclass = No"] ;
15 -> 17 ;
18 [label="entropy = 0.0\nsamples = 1\nvalue = [1, 0]\nclass = No"] ;
17 -> 18 ;
19 [label="entropy = 1.0\nsamples = 2\nvalue = [1, 1]\nclass = No"] ;
17 -> 19 ;
20 [label="entropy = 0.0\nsamples = 4\nvalue = [4, 0]\nclass = No"] ;
14 -> 20 ;
21 [label="age <= 18.0\nentropy = 1.0\nsamples = 2\nvalue = [1, 1]\nclass = No"] ;
13 -> 21 ;
22 [label="entropy = 0.0\nsamples = 1\nvalue = [1, 0]\nclass = No"] ;
21 -> 22 ;
23 [label="entropy = 0.0\nsamples = 1\nvalue = [0, 1]\nclass = Yes"] ;
21 -> 23 ;
24 [label="age <= 27.5\nentropy = 0.191\nsamples = 34\nvalue = [33, 1]\nclass = No"] ;
12 -> 24 ;
25 [label="entropy = 0.0\nsamples = 26\nvalue = [26, 0]\nclass = No"] ;
24 -> 25 ;
26 [label="race <= 1.5\nentropy = 0.544\nsamples = 8\nvalue = [7, 1]\nclass = No"] ;
24 -> 26 ;
27 [label="entropy = 0.722\nsamples = 5\nvalue = [4, 1]\nclass = No"] ;
26 -> 27 ;
28 [label="entropy = 0.0\nsamples = 3\nvalue = [3, 0]\nclass = No"] ;
26 -> 28 ;
29 [label="race <= 1.5\nentropy = 0.918\nsamples = 6\nvalue = [4, 2]\nclass = No"] ;
11 -> 29 ;
30 [label="entropy = 1.0\nsamples = 4\nvalue = [2, 2]\nclass = No"] ;
29 -> 30 ;
31 [label="entropy = 0.0\nsamples = 2\nvalue = [2, 0]\nclass = No"] ;
29 -> 31 ;
32 [label="threat_level <= 0.5\nentropy = 0.881\nsamples = 10\nvalue = [7, 3]\nclass = No"] ;
10 -> 32 ;
33 [label="age <= 20.0\nentropy = 0.954\nsamples = 8\nvalue = [5, 3]\nclass = No"] ;
32 -> 33 ;
34 [label="entropy = 0.0\nsamples = 2\nvalue = [2, 0]\nclass = No"] ;
33 -> 34 ;
35 [label="age <= 22.5\nentropy = 1.0\nsamples = 6\nvalue = [3, 3]\nclass = No"] ;
33 -> 35 ;
36 [label="entropy = 0.0\nsamples = 2\nvalue = [0, 2]\nclass = Yes"] ;
35 -> 36 ;
37 [label="age <= 26.5\nentropy = 0.811\nsamples = 4\nvalue = [3, 1]\nclass = No"] ;
35 -> 37 ;
38 [label="entropy = 0.0\nsamples = 2\nvalue = [2, 0]\nclass = No"] ;
37 -> 38 ;
39 [label="race <= 1.5\nentropy = 1.0\nsamples = 2\nvalue = [1, 1]\nclass = No"] ;
37 -> 39 ;
40 [label="entropy = 0.0\nsamples = 1\nvalue = [1, 0]\nclass = No"] ;
39 -> 40 ;
41 [label="entropy = 0.0\nsamples = 1\nvalue = [0, 1]\nclass = Yes"] ;
39 -> 41 ;
42 [label="entropy = 0.0\nsamples = 2\nvalue = [2, 0]\nclass = No"] ;
32 -> 42 ;
43 [label="age <= 38.5\nentropy = 0.27\nsamples = 65\nvalue = [62, 3]\nclass = No"] ;
9 -> 43 ;
44 [label="entropy = 0.0\nsamples = 31\nvalue = [31, 0]\nclass = No"] ;
43 -> 44 ;
45 [label="age <= 45.5\nentropy = 0.431\nsamples = 34\nvalue = [31, 3]\nclass = No"] ;
43 -> 45 ;
46 [label="threat_level <= 0.5\nentropy = 0.544\nsamples = 24\nvalue = [21, 3]\nclass = No"] ;
45 -> 46 ;
47 [label="age <= 40.5\nentropy = 0.439\nsamples = 22\nvalue = [20, 2]\nclass = No"] ;
46 -> 47 ;
48 [label="race <= 1.5\nentropy = 0.684\nsamples = 11\nvalue = [9, 2]\nclass = No"] ;
47 -> 48 ;
49 [label="age <= 39.5\nentropy = 0.811\nsamples = 8\nvalue = [6, 2]\nclass = No"] ;
48 -> 49 ;
50 [label="entropy = 0.722\nsamples = 5\nvalue = [4, 1]\nclass = No"] ;
49 -> 50 ;
51 [label="entropy = 0.918\nsamples = 3\nvalue = [2, 1]\nclass = No"] ;
49 -> 51 ;
52 [label="entropy = 0.0\nsamples = 3\nvalue = [3, 0]\nclass = No"] ;
48 -> 52 ;
53 [label="entropy = 0.0\nsamples = 11\nvalue = [11, 0]\nclass = No"] ;
47 -> 53 ;
54 [label="age <= 43.5\nentropy = 1.0\nsamples = 2\nvalue = [1, 1]\nclass = No"] ;
46 -> 54 ;
55 [label="entropy = 0.0\nsamples = 1\nvalue = [1, 0]\nclass = No"] ;
54 -> 55 ;
56 [label="entropy = 0.0\nsamples = 1\nvalue = [0, 1]\nclass = Yes"] ;
54 -> 56 ;
57 [label="entropy = 0.0\nsamples = 10\nvalue = [10, 0]\nclass = No"] ;
45 -> 57 ;
58 [label="threat_level <= 0.5\nentropy = 0.176\nsamples = 151\nvalue = [147, 4]\nclass = No"] ;
8 -> 58 ;
59 [label="manner_of_death <= 0.5\nentropy = 0.227\nsamples = 109\nvalue = [105, 4]\nclass = No"] ;
58 -> 59 ;
60 [label="age <= 35.5\nentropy = 0.189\nsamples = 104\nvalue = [101, 3]\nclass = No"] ;
59 -> 60 ;
61 [label="age <= 34.5\nentropy = 0.224\nsamples = 83\nvalue = [80, 3]\nclass = No"] ;
60 -> 61 ;
62 [label="age <= 25.5\nentropy = 0.169\nsamples = 80\nvalue = [78, 2]\nclass = No"] ;
61 -> 62 ;
63 [label="age <= 24.5\nentropy = 0.258\nsamples = 46\nvalue = [44, 2]\nclass = No"] ;
62 -> 63 ;
64 [label="race <= 1.5\nentropy = 0.162\nsamples = 42\nvalue = [41, 1]\nclass = No"] ;
63 -> 64 ;
65 [label="entropy = 0.0\nsamples = 32\nvalue = [32, 0]\nclass = No"] ;
64 -> 65 ;
66 [label="age <= 19.5\nentropy = 0.469\nsamples = 10\nvalue = [9, 1]\nclass = No"] ;
64 -> 66 ;
67 [label="age <= 18.0\nentropy = 0.811\nsamples = 4\nvalue = [3, 1]\nclass = No"] ;
66 -> 67 ;
68 [label="entropy = 0.0\nsamples = 2\nvalue = [2, 0]\nclass = No"] ;
67 -> 68 ;
69 [label="entropy = 1.0\nsamples = 2\nvalue = [1, 1]\nclass = No"] ;
67 -> 69 ;
70 [label="entropy = 0.0\nsamples = 6\nvalue = [6, 0]\nclass = No"] ;
66 -> 70 ;
71 [label="body_camera <= 0.5\nentropy = 0.811\nsamples = 4\nvalue = [3, 1]\nclass = No"] ;
63 -> 71 ;
72 [label="entropy = 0.0\nsamples = 3\nvalue = [3, 0]\nclass = No"] ;
71 -> 72 ;
73 [label="entropy = 0.0\nsamples = 1\nvalue = [0, 1]\nclass = Yes"] ;
71 -> 73 ;
74 [label="entropy = 0.0\nsamples = 34\nvalue = [34, 0]\nclass = No"] ;
62 -> 74 ;
75 [label="entropy = 0.918\nsamples = 3\nvalue = [2, 1]\nclass = No"] ;
61 -> 75 ;
76 [label="entropy = 0.0\nsamples = 21\nvalue = [21, 0]\nclass = No"] ;
60 -> 76 ;
77 [label="age <= 41.5\nentropy = 0.722\nsamples = 5\nvalue = [4, 1]\nclass = No"] ;
59 -> 77 ;
78 [label="entropy = 0.0\nsamples = 4\nvalue = [4, 0]\nclass = No"] ;
77 -> 78 ;
79 [label="entropy = 0.0\nsamples = 1\nvalue = [0, 1]\nclass = Yes"] ;
77 -> 79 ;
80 [label="entropy = 0.0\nsamples = 42\nvalue = [42, 0]\nclass = No"] ;
58 -> 80 ;
81 [label="age <= 17.0\nentropy = 0.561\nsamples = 244\nvalue = [212, 32]\nclass = No"] ;
7 -> 81 ;
82 [label="entropy = 0.0\nsamples = 2\nvalue = [0, 2]\nclass = Yes"] ;
81 -> 82 ;
83 [label="age <= 33.5\nentropy = 0.541\nsamples = 242\nvalue = [212, 30]\nclass = No"] ;
81 -> 83 ;
84 [label="age <= 19.5\nentropy = 0.667\nsamples = 109\nvalue = [90, 19]\nclass = No"] ;
83 -> 84 ;
85 [label="entropy = 0.0\nsamples = 9\nvalue = [9, 0]\nclass = No"] ;
84 -> 85 ;
86 [label="age <= 22.5\nentropy = 0.701\nsamples = 100\nvalue = [81, 19]\nclass = No"] ;
84 -> 86 ;
87 [label="threat_level <= 0.5\nentropy = 1.0\nsamples = 8\nvalue = [4, 4]\nclass = No"] ;
86 -> 87 ;
88 [label="age <= 20.5\nentropy = 1.0\nsamples = 6\nvalue = [3, 3]\nclass = No"] ;
87 -> 88 ;
89 [label="entropy = 0.0\nsamples = 1\nvalue = [0, 1]\nclass = Yes"] ;
88 -> 89 ;
90 [label="body_camera <= 0.5\nentropy = 0.971\nsamples = 5\nvalue = [3, 2]\nclass = No"] ;
88 -> 90 ;
91 [label="age <= 21.5\nentropy = 0.811\nsamples = 4\nvalue = [3, 1]\nclass = No"] ;
90 -> 91 ;
92 [label="entropy = 0.0\nsamples = 2\nvalue = [2, 0]\nclass = No"] ;
91 -> 92 ;
93 [label="flee <= 0.5\nentropy = 1.0\nsamples = 2\nvalue = [1, 1]\nclass = No"] ;
91 -> 93 ;
94 [label="entropy = 0.0\nsamples = 1\nvalue = [1, 0]\nclass = No"] ;
93 -> 94 ;
95 [label="entropy = 0.0\nsamples = 1\nvalue = [0, 1]\nclass = Yes"] ;
93 -> 95 ;
96 [label="entropy = 0.0\nsamples = 1\nvalue = [0, 1]\nclass = Yes"] ;
90 -> 96 ;
97 [label="age <= 20.5\nentropy = 1.0\nsamples = 2\nvalue = [1, 1]\nclass = No"] ;
87 -> 97 ;
98 [label="entropy = 0.0\nsamples = 1\nvalue = [1, 0]\nclass = No"] ;
97 -> 98 ;
99 [label="entropy = 0.0\nsamples = 1\nvalue = [0, 1]\nclass = Yes"] ;
97 -> 99 ;
100 [label="age <= 24.5\nentropy = 0.642\nsamples = 92\nvalue = [77, 15]\nclass = No"] ;
86 -> 100 ;
101 [label="entropy = 0.0\nsamples = 12\nvalue = [12, 0]\nclass = No"] ;
100 -> 101 ;
102 [label="body_camera <= 0.5\nentropy = 0.696\nsamples = 80\nvalue = [65, 15]\nclass = No"] ;
100 -> 102 ;
103 [label="age <= 26.5\nentropy = 0.744\nsamples = 71\nvalue = [56, 15]\nclass = No"] ;
102 -> 103 ;
104 [label="flee <= 0.5\nentropy = 0.523\nsamples = 17\nvalue = [15, 2]\nclass = No"] ;
103 -> 104 ;
105 [label="age <= 25.5\nentropy = 0.764\nsamples = 9\nvalue = [7, 2]\nclass = No"] ;
104 -> 105 ;
106 [label="threat_level <= 0.5\nentropy = 0.918\nsamples = 6\nvalue = [4, 2]\nclass = No"] ;
105 -> 106 ;
107 [label="armed <= 32.0\nentropy = 0.971\nsamples = 5\nvalue = [3, 2]\nclass = No"] ;
106 -> 107 ;
108 [label="entropy = 1.0\nsamples = 4\nvalue = [2, 2]\nclass = No"] ;
107 -> 108 ;
109 [label="entropy = 0.0\nsamples = 1\nvalue = [1, 0]\nclass = No"] ;
107 -> 109 ;
110 [label="entropy = 0.0\nsamples = 1\nvalue = [1, 0]\nclass = No"] ;
106 -> 110 ;
111 [label="entropy = 0.0\nsamples = 3\nvalue = [3, 0]\nclass = No"] ;
105 -> 111 ;
112 [label="entropy = 0.0\nsamples = 8\nvalue = [8, 0]\nclass = No"] ;
104 -> 112 ;
113 [label="manner_of_death <= 0.5\nentropy = 0.796\nsamples = 54\nvalue = [41, 13]\nclass = No"] ;
103 -> 113 ;
114 [label="gender <= 0.5\nentropy = 0.811\nsamples = 52\nvalue = [39, 13]\nclass = No"] ;
113 -> 114 ;
115 [label="entropy = 0.0\nsamples = 2\nvalue = [2, 0]\nclass = No"] ;
114 -> 115 ;
116 [label="armed <= 32.0\nentropy = 0.827\nsamples = 50\nvalue = [37, 13]\nclass = No"] ;
114 -> 116 ;
117 [label="age <= 29.5\nentropy = 0.835\nsamples = 49\nvalue = [36, 13]\nclass = No"] ;
116 -> 117 ;
118 [label="flee <= 0.5\nentropy = 0.773\nsamples = 22\nvalue = [17, 5]\nclass = No"] ;
117 -> 118 ;
119 [label="age <= 27.5\nentropy = 0.881\nsamples = 10\nvalue = [7, 3]\nclass = No"] ;
118 -> 119 ;
120 [label="entropy = 0.0\nsamples = 4\nvalue = [4, 0]\nclass = No"] ;
119 -> 120 ;
121 [label="threat_level <= 0.5\nentropy = 1.0\nsamples = 6\nvalue = [3, 3]\nclass = No"] ;
119 -> 121 ;
122 [label="age <= 28.5\nentropy = 0.971\nsamples = 5\nvalue = [3, 2]\nclass = No"] ;
121 -> 122 ;
123 [label="entropy = 1.0\nsamples = 2\nvalue = [1, 1]\nclass = No"] ;
122 -> 123 ;
124 [label="entropy = 0.918\nsamples = 3\nvalue = [2, 1]\nclass = No"] ;
122 -> 124 ;
125 [label="entropy = 0.0\nsamples = 1\nvalue = [0, 1]\nclass = Yes"] ;
121 -> 125 ;
126 [label="age <= 27.5\nentropy = 0.65\nsamples = 12\nvalue = [10, 2]\nclass = No"] ;
118 -> 126 ;
127 [label="threat_level <= 0.5\nentropy = 0.971\nsamples = 5\nvalue = [3, 2]\nclass = No"] ;
126 -> 127 ;
128 [label="entropy = 1.0\nsamples = 4\nvalue = [2, 2]\nclass = No"] ;
127 -> 128 ;
129 [label="entropy = 0.0\nsamples = 1\nvalue = [1, 0]\nclass = No"] ;
127 -> 129 ;
130 [label="entropy = 0.0\nsamples = 7\nvalue = [7, 0]\nclass = No"] ;
126 -> 130 ;
131 [label="flee <= 0.5\nentropy = 0.877\nsamples = 27\nvalue = [19, 8]\nclass = No"] ;
117 -> 131 ;
132 [label="age <= 30.5\nentropy = 0.811\nsamples = 16\nvalue = [12, 4]\nclass = No"] ;
131 -> 132 ;
133 [label="threat_level <= 0.5\nentropy = 0.65\nsamples = 6\nvalue = [5, 1]\nclass = No"] ;
132 -> 133 ;
134 [label="entropy = 0.722\nsamples = 5\nvalue = [4, 1]\nclass = No"] ;
133 -> 134 ;
135 [label="entropy = 0.0\nsamples = 1\nvalue = [1, 0]\nclass = No"] ;
133 -> 135 ;
136 [label="age <= 32.5\nentropy = 0.881\nsamples = 10\nvalue = [7, 3]\nclass = No"] ;
132 -> 136 ;
137 [label="threat_level <= 0.5\nentropy = 0.971\nsamples = 5\nvalue = [3, 2]\nclass = No"] ;
136 -> 137 ;
138 [label="age <= 31.5\nentropy = 1.0\nsamples = 4\nvalue = [2, 2]\nclass = No"] ;
137 -> 138 ;
139 [label="entropy = 1.0\nsamples = 2\nvalue = [1, 1]\nclass = No"] ;
138 -> 139 ;
140 [label="entropy = 1.0\nsamples = 2\nvalue = [1, 1]\nclass = No"] ;
138 -> 140 ;
141 [label="entropy = 0.0\nsamples = 1\nvalue = [1, 0]\nclass = No"] ;
137 -> 141 ;
142 [label="threat_level <= 0.5\nentropy = 0.722\nsamples = 5\nvalue = [4, 1]\nclass = No"] ;
136 -> 142 ;
143 [label="entropy = 0.0\nsamples = 3\nvalue = [3, 0]\nclass = No"] ;
142 -> 143 ;
144 [label="entropy = 1.0\nsamples = 2\nvalue = [1, 1]\nclass = No"] ;
142 -> 144 ;
145 [label="age <= 31.5\nentropy = 0.946\nsamples = 11\nvalue = [7, 4]\nclass = No"] ;
131 -> 145 ;
146 [label="age <= 30.5\nentropy = 0.985\nsamples = 7\nvalue = [4, 3]\nclass = No"] ;
145 -> 146 ;
147 [label="threat_level <= 0.5\nentropy = 0.971\nsamples = 5\nvalue = [3, 2]\nclass = No"] ;
146 -> 147 ;
148 [label="entropy = 0.918\nsamples = 3\nvalue = [2, 1]\nclass = No"] ;
147 -> 148 ;
149 [label="entropy = 1.0\nsamples = 2\nvalue = [1, 1]\nclass = No"] ;
147 -> 149 ;
150 [label="entropy = 1.0\nsamples = 2\nvalue = [1, 1]\nclass = No"] ;
146 -> 150 ;
151 [label="age <= 32.5\nentropy = 0.811\nsamples = 4\nvalue = [3, 1]\nclass = No"] ;
145 -> 151 ;
152 [label="entropy = 0.0\nsamples = 2\nvalue = [2, 0]\nclass = No"] ;
151 -> 152 ;
153 [label="entropy = 1.0\nsamples = 2\nvalue = [1, 1]\nclass = No"] ;
151 -> 153 ;
154 [label="entropy = 0.0\nsamples = 1\nvalue = [1, 0]\nclass = No"] ;
116 -> 154 ;
155 [label="entropy = 0.0\nsamples = 2\nvalue = [2, 0]\nclass = No"] ;
113 -> 155 ;
156 [label="entropy = 0.0\nsamples = 9\nvalue = [9, 0]\nclass = No"] ;
102 -> 156 ;
157 [label="age <= 58.5\nentropy = 0.412\nsamples = 133\nvalue = [122, 11]\nclass = No"] ;
83 -> 157 ;
158 [label="age <= 55.5\nentropy = 0.442\nsamples = 120\nvalue = [109, 11]\nclass = No"] ;
157 -> 158 ;
159 [label="flee <= 0.5\nentropy = 0.364\nsamples = 115\nvalue = [107, 8]\nclass = No"] ;
158 -> 159 ;
160 [label="age <= 50.5\nentropy = 0.465\nsamples = 81\nvalue = [73, 8]\nclass = No"] ;
159 -> 160 ;
161 [label="age <= 49.5\nentropy = 0.503\nsamples = 72\nvalue = [64, 8]\nclass = No"] ;
160 -> 161 ;
162 [label="age <= 47.0\nentropy = 0.469\nsamples = 70\nvalue = [63, 7]\nclass = No"] ;
161 -> 162 ;
163 [label="age <= 44.5\nentropy = 0.503\nsamples = 63\nvalue = [56, 7]\nclass = No"] ;
162 -> 163 ;
164 [label="age <= 40.5\nentropy = 0.445\nsamples = 54\nvalue = [49, 5]\nclass = No"] ;
163 -> 164 ;
165 [label="gender <= 0.5\nentropy = 0.535\nsamples = 41\nvalue = [36, 5]\nclass = No"] ;
164 -> 165 ;
166 [label="entropy = 0.0\nsamples = 4\nvalue = [4, 0]\nclass = No"] ;
165 -> 166 ;
167 [label="age <= 36.5\nentropy = 0.571\nsamples = 37\nvalue = [32, 5]\nclass = No"] ;
165 -> 167 ;
168 [label="age <= 35.5\nentropy = 0.469\nsamples = 20\nvalue = [18, 2]\nclass = No"] ;
167 -> 168 ;
169 [label="threat_level <= 0.5\nentropy = 0.567\nsamples = 15\nvalue = [13, 2]\nclass = No"] ;
168 -> 169 ;
170 [label="age <= 34.5\nentropy = 0.65\nsamples = 12\nvalue = [10, 2]\nclass = No"] ;
169 -> 170 ;
171 [label="entropy = 0.811\nsamples = 4\nvalue = [3, 1]\nclass = No"] ;
170 -> 171 ;
172 [label="entropy = 0.544\nsamples = 8\nvalue = [7, 1]\nclass = No"] ;
170 -> 172 ;
173 [label="entropy = 0.0\nsamples = 3\nvalue = [3, 0]\nclass = No"] ;
169 -> 173 ;
174 [label="entropy = 0.0\nsamples = 5\nvalue = [5, 0]\nclass = No"] ;
168 -> 174 ;
175 [label="age <= 37.5\nentropy = 0.672\nsamples = 17\nvalue = [14, 3]\nclass = No"] ;
167 -> 175 ;
176 [label="entropy = 1.0\nsamples = 2\nvalue = [1, 1]\nclass = No"] ;
175 -> 176 ;
177 [label="threat_level <= 0.5\nentropy = 0.567\nsamples = 15\nvalue = [13, 2]\nclass = No"] ;
175 -> 177 ;
178 [label="age <= 38.5\nentropy = 0.414\nsamples = 12\nvalue = [11, 1]\nclass = No"] ;
177 -> 178 ;
179 [label="entropy = 0.722\nsamples = 5\nvalue = [4, 1]\nclass = No"] ;
178 -> 179 ;
180 [label="entropy = 0.0\nsamples = 7\nvalue = [7, 0]\nclass = No"] ;
178 -> 180 ;
181 [label="age <= 39.5\nentropy = 0.918\nsamples = 3\nvalue = [2, 1]\nclass = No"] ;
177 -> 181 ;
182 [label="entropy = 0.0\nsamples = 1\nvalue = [1, 0]\nclass = No"] ;
181 -> 182 ;
183 [label="entropy = 1.0\nsamples = 2\nvalue = [1, 1]\nclass = No"] ;
181 -> 183 ;
184 [label="entropy = 0.0\nsamples = 13\nvalue = [13, 0]\nclass = No"] ;
164 -> 184 ;
185 [label="gender <= 0.5\nentropy = 0.764\nsamples = 9\nvalue = [7, 2]\nclass = No"] ;
163 -> 185 ;
186 [label="entropy = 0.0\nsamples = 1\nvalue = [0, 1]\nclass = Yes"] ;
185 -> 186 ;
187 [label="age <= 45.5\nentropy = 0.544\nsamples = 8\nvalue = [7, 1]\nclass = No"] ;
185 -> 187 ;
188 [label="entropy = 0.811\nsamples = 4\nvalue = [3, 1]\nclass = No"] ;
187 -> 188 ;
189 [label="entropy = 0.0\nsamples = 4\nvalue = [4, 0]\nclass = No"] ;
187 -> 189 ;
190 [label="entropy = 0.0\nsamples = 7\nvalue = [7, 0]\nclass = No"] ;
162 -> 190 ;
191 [label="gender <= 0.5\nentropy = 1.0\nsamples = 2\nvalue = [1, 1]\nclass = No"] ;
161 -> 191 ;
192 [label="entropy = 0.0\nsamples = 1\nvalue = [0, 1]\nclass = Yes"] ;
191 -> 192 ;
193 [label="entropy = 0.0\nsamples = 1\nvalue = [1, 0]\nclass = No"] ;
191 -> 193 ;
194 [label="entropy = 0.0\nsamples = 9\nvalue = [9, 0]\nclass = No"] ;
160 -> 194 ;
195 [label="entropy = 0.0\nsamples = 34\nvalue = [34, 0]\nclass = No"] ;
159 -> 195 ;
196 [label="threat_level <= 0.5\nentropy = 0.971\nsamples = 5\nvalue = [2, 3]\nclass = Yes"] ;
158 -> 196 ;
197 [label="entropy = 0.0\nsamples = 2\nvalue = [0, 2]\nclass = Yes"] ;
196 -> 197 ;
198 [label="body_camera <= 0.5\nentropy = 0.918\nsamples = 3\nvalue = [2, 1]\nclass = No"] ;
196 -> 198 ;
199 [label="entropy = 0.0\nsamples = 2\nvalue = [2, 0]\nclass = No"] ;
198 -> 199 ;
200 [label="entropy = 0.0\nsamples = 1\nvalue = [0, 1]\nclass = Yes"] ;
198 -> 200 ;
201 [label="entropy = 0.0\nsamples = 13\nvalue = [13, 0]\nclass = No"] ;
157 -> 201 ;
202 [label="armed <= 74.5\nentropy = 0.608\nsamples = 261\nvalue = [222, 39]\nclass = No"] ;
6 -> 202 ;
203 [label="age <= 18.5\nentropy = 0.845\nsamples = 99\nvalue = [72, 27]\nclass = No"] ;
202 -> 203 ;
204 [label="entropy = 0.0\nsamples = 6\nvalue = [6, 0]\nclass = No"] ;
203 -> 204 ;
205 [label="armed <= 47.5\nentropy = 0.869\nsamples = 93\nvalue = [66, 27]\nclass = No"] ;
203 -> 205 ;
206 [label="armed <= 42.0\nentropy = 0.792\nsamples = 63\nvalue = [48, 15]\nclass = No"] ;
205 -> 206 ;
207 [label="age <= 23.5\nentropy = 0.845\nsamples = 55\nvalue = [40, 15]\nclass = No"] ;
206 -> 207 ;
208 [label="entropy = 0.0\nsamples = 6\nvalue = [6, 0]\nclass = No"] ;
207 -> 208 ;
209 [label="flee <= 0.5\nentropy = 0.889\nsamples = 49\nvalue = [34, 15]\nclass = No"] ;
207 -> 209 ;
210 [label="gender <= 0.5\nentropy = 0.439\nsamples = 11\nvalue = [10, 1]\nclass = No"] ;
209 -> 210 ;
211 [label="age <= 32.0\nentropy = 0.918\nsamples = 3\nvalue = [2, 1]\nclass = No"] ;
210 -> 211 ;
212 [label="entropy = 0.0\nsamples = 1\nvalue = [0, 1]\nclass = Yes"] ;
211 -> 212 ;
213 [label="entropy = 0.0\nsamples = 2\nvalue = [2, 0]\nclass = No"] ;
211 -> 213 ;
214 [label="entropy = 0.0\nsamples = 8\nvalue = [8, 0]\nclass = No"] ;
210 -> 214 ;
215 [label="race <= 4.0\nentropy = 0.949\nsamples = 38\nvalue = [24, 14]\nclass = No"] ;
209 -> 215 ;
216 [label="age <= 30.5\nentropy = 1.0\nsamples = 20\nvalue = [10, 10]\nclass = No"] ;
215 -> 216 ;
217 [label="entropy = 0.0\nsamples = 4\nvalue = [0, 4]\nclass = Yes"] ;
216 -> 217 ;
218 [label="age <= 33.0\nentropy = 0.954\nsamples = 16\nvalue = [10, 6]\nclass = No"] ;
216 -> 218 ;
219 [label="entropy = 0.0\nsamples = 3\nvalue = [3, 0]\nclass = No"] ;
218 -> 219 ;
220 [label="age <= 36.0\nentropy = 0.996\nsamples = 13\nvalue = [7, 6]\nclass = No"] ;
218 -> 220 ;
221 [label="entropy = 0.0\nsamples = 2\nvalue = [0, 2]\nclass = Yes"] ;
220 -> 221 ;
222 [label="manner_of_death <= 0.5\nentropy = 0.946\nsamples = 11\nvalue = [7, 4]\nclass = No"] ;
220 -> 222 ;
223 [label="age <= 39.0\nentropy = 0.881\nsamples = 10\nvalue = [7, 3]\nclass = No"] ;
222 -> 223 ;
224 [label="entropy = 0.0\nsamples = 2\nvalue = [2, 0]\nclass = No"] ;
223 -> 224 ;
225 [label="body_camera <= 0.5\nentropy = 0.954\nsamples = 8\nvalue = [5, 3]\nclass = No"] ;
223 -> 225 ;
226 [label="age <= 48.0\nentropy = 1.0\nsamples = 6\nvalue = [3, 3]\nclass = No"] ;
225 -> 226 ;
227 [label="race <= 1.5\nentropy = 0.971\nsamples = 5\nvalue = [2, 3]\nclass = Yes"] ;
226 -> 227 ;
228 [label="entropy = 0.0\nsamples = 2\nvalue = [0, 2]\nclass = Yes"] ;
227 -> 228 ;
229 [label="age <= 42.0\nentropy = 0.918\nsamples = 3\nvalue = [2, 1]\nclass = No"] ;
227 -> 229 ;
230 [label="entropy = 0.0\nsamples = 1\nvalue = [1, 0]\nclass = No"] ;
229 -> 230 ;
231 [label="age <= 44.5\nentropy = 1.0\nsamples = 2\nvalue = [1, 1]\nclass = No"] ;
229 -> 231 ;
232 [label="entropy = 0.0\nsamples = 1\nvalue = [0, 1]\nclass = Yes"] ;
231 -> 232 ;
233 [label="entropy = 0.0\nsamples = 1\nvalue = [1, 0]\nclass = No"] ;
231 -> 233 ;
234 [label="entropy = 0.0\nsamples = 1\nvalue = [1, 0]\nclass = No"] ;
226 -> 234 ;
235 [label="entropy = 0.0\nsamples = 2\nvalue = [2, 0]\nclass = No"] ;
225 -> 235 ;
236 [label="entropy = 0.0\nsamples = 1\nvalue = [0, 1]\nclass = Yes"] ;
222 -> 236 ;
237 [label="age <= 34.5\nentropy = 0.764\nsamples = 18\nvalue = [14, 4]\nclass = No"] ;
215 -> 237 ;
238 [label="age <= 29.5\nentropy = 0.619\nsamples = 13\nvalue = [11, 2]\nclass = No"] ;
237 -> 238 ;
239 [label="age <= 28.0\nentropy = 0.863\nsamples = 7\nvalue = [5, 2]\nclass = No"] ;
238 -> 239 ;
240 [label="age <= 25.5\nentropy = 0.65\nsamples = 6\nvalue = [5, 1]\nclass = No"] ;
239 -> 240 ;
241 [label="entropy = 0.0\nsamples = 2\nvalue = [2, 0]\nclass = No"] ;
240 -> 241 ;
242 [label="age <= 26.5\nentropy = 0.811\nsamples = 4\nvalue = [3, 1]\nclass = No"] ;
240 -> 242 ;
243 [label="entropy = 1.0\nsamples = 2\nvalue = [1, 1]\nclass = No"] ;
242 -> 243 ;
244 [label="entropy = 0.0\nsamples = 2\nvalue = [2, 0]\nclass = No"] ;
242 -> 244 ;
245 [label="entropy = 0.0\nsamples = 1\nvalue = [0, 1]\nclass = Yes"] ;
239 -> 245 ;
246 [label="entropy = 0.0\nsamples = 6\nvalue = [6, 0]\nclass = No"] ;
238 -> 246 ;
247 [label="age <= 44.5\nentropy = 0.971\nsamples = 5\nvalue = [3, 2]\nclass = No"] ;
237 -> 247 ;
248 [label="age <= 37.5\nentropy = 0.918\nsamples = 3\nvalue = [1, 2]\nclass = Yes"] ;
247 -> 248 ;
249 [label="entropy = 0.0\nsamples = 1\nvalue = [0, 1]\nclass = Yes"] ;
248 -> 249 ;
250 [label="age <= 41.5\nentropy = 1.0\nsamples = 2\nvalue = [1, 1]\nclass = No"] ;
248 -> 250 ;
251 [label="entropy = 0.0\nsamples = 1\nvalue = [1, 0]\nclass = No"] ;
250 -> 251 ;
252 [label="entropy = 0.0\nsamples = 1\nvalue = [0, 1]\nclass = Yes"] ;
250 -> 252 ;
253 [label="entropy = 0.0\nsamples = 2\nvalue = [2, 0]\nclass = No"] ;
247 -> 253 ;
254 [label="entropy = 0.0\nsamples = 8\nvalue = [8, 0]\nclass = No"] ;
206 -> 254 ;
255 [label="age <= 36.5\nentropy = 0.971\nsamples = 30\nvalue = [18, 12]\nclass = No"] ;
205 -> 255 ;
256 [label="age <= 23.5\nentropy = 0.831\nsamples = 19\nvalue = [14, 5]\nclass = No"] ;
255 -> 256 ;
257 [label="race <= 3.5\nentropy = 0.971\nsamples = 5\nvalue = [2, 3]\nclass = Yes"] ;
256 -> 257 ;
258 [label="age <= 20.5\nentropy = 1.0\nsamples = 4\nvalue = [2, 2]\nclass = No"] ;
257 -> 258 ;
259 [label="entropy = 0.0\nsamples = 1\nvalue = [1, 0]\nclass = No"] ;
258 -> 259 ;
260 [label="flee <= 0.5\nentropy = 0.918\nsamples = 3\nvalue = [1, 2]\nclass = Yes"] ;
258 -> 260 ;
261 [label="entropy = 0.0\nsamples = 1\nvalue = [1, 0]\nclass = No"] ;
260 -> 261 ;
262 [label="entropy = 0.0\nsamples = 2\nvalue = [0, 2]\nclass = Yes"] ;
260 -> 262 ;
263 [label="entropy = 0.0\nsamples = 1\nvalue = [0, 1]\nclass = Yes"] ;
257 -> 263 ;
264 [label="manner_of_death <= 0.5\nentropy = 0.592\nsamples = 14\nvalue = [12, 2]\nclass = No"] ;
256 -> 264 ;
265 [label="armed <= 67.5\nentropy = 0.391\nsamples = 13\nvalue = [12, 1]\nclass = No"] ;
264 -> 265 ;
266 [label="race <= 3.0\nentropy = 0.918\nsamples = 3\nvalue = [2, 1]\nclass = No"] ;
265 -> 266 ;
267 [label="entropy = 0.0\nsamples = 1\nvalue = [0, 1]\nclass = Yes"] ;
266 -> 267 ;
268 [label="entropy = 0.0\nsamples = 2\nvalue = [2, 0]\nclass = No"] ;
266 -> 268 ;
269 [label="entropy = 0.0\nsamples = 10\nvalue = [10, 0]\nclass = No"] ;
265 -> 269 ;
270 [label="entropy = 0.0\nsamples = 1\nvalue = [0, 1]\nclass = Yes"] ;
264 -> 270 ;
271 [label="age <= 48.5\nentropy = 0.946\nsamples = 11\nvalue = [4, 7]\nclass = Yes"] ;
255 -> 271 ;
272 [label="flee <= 0.5\nentropy = 0.544\nsamples = 8\nvalue = [1, 7]\nclass = Yes"] ;
271 -> 272 ;
273 [label="entropy = 0.0\nsamples = 4\nvalue = [0, 4]\nclass = Yes"] ;
272 -> 273 ;
274 [label="threat_level <= 0.5\nentropy = 0.811\nsamples = 4\nvalue = [1, 3]\nclass = Yes"] ;
272 -> 274 ;
275 [label="age <= 45.5\nentropy = 0.918\nsamples = 3\nvalue = [1, 2]\nclass = Yes"] ;
274 -> 275 ;
276 [label="entropy = 1.0\nsamples = 2\nvalue = [1, 1]\nclass = No"] ;
275 -> 276 ;
277 [label="entropy = 0.0\nsamples = 1\nvalue = [0, 1]\nclass = Yes"] ;
275 -> 277 ;
278 [label="entropy = 0.0\nsamples = 1\nvalue = [0, 1]\nclass = Yes"] ;
274 -> 278 ;
279 [label="entropy = 0.0\nsamples = 3\nvalue = [3, 0]\nclass = No"] ;
271 -> 279 ;
280 [label="age <= 37.5\nentropy = 0.381\nsamples = 162\nvalue = [150, 12]\nclass = No"] ;
202 -> 280 ;
281 [label="age <= 31.5\nentropy = 0.456\nsamples = 125\nvalue = [113, 12]\nclass = No"] ;
280 -> 281 ;
282 [label="armed <= 76.5\nentropy = 0.337\nsamples = 96\nvalue = [90, 6]\nclass = No"] ;
281 -> 282 ;
283 [label="race <= 1.5\nentropy = 0.454\nsamples = 63\nvalue = [57, 6]\nclass = No"] ;
282 -> 283 ;
284 [label="threat_level <= 0.5\nentropy = 0.634\nsamples = 25\nvalue = [21, 4]\nclass = No"] ;
283 -> 284 ;
285 [label="manner_of_death <= 0.5\nentropy = 0.89\nsamples = 13\nvalue = [9, 4]\nclass = No"] ;
284 -> 285 ;
286 [label="armed <= 75.5\nentropy = 0.991\nsamples = 9\nvalue = [5, 4]\nclass = No"] ;
285 -> 286 ;
287 [label="body_camera <= 0.5\nentropy = 0.954\nsamples = 8\nvalue = [5, 3]\nclass = No"] ;
286 -> 287 ;
288 [label="age <= 28.5\nentropy = 1.0\nsamples = 6\nvalue = [3, 3]\nclass = No"] ;
287 -> 288 ;
289 [label="age <= 25.5\nentropy = 0.971\nsamples = 5\nvalue = [3, 2]\nclass = No"] ;
288 -> 289 ;
290 [label="age <= 23.5\nentropy = 1.0\nsamples = 4\nvalue = [2, 2]\nclass = No"] ;
289 -> 290 ;
291 [label="age <= 21.0\nentropy = 0.918\nsamples = 3\nvalue = [2, 1]\nclass = No"] ;
290 -> 291 ;
292 [label="entropy = 1.0\nsamples = 2\nvalue = [1, 1]\nclass = No"] ;
291 -> 292 ;
293 [label="entropy = 0.0\nsamples = 1\nvalue = [1, 0]\nclass = No"] ;
291 -> 293 ;
294 [label="entropy = 0.0\nsamples = 1\nvalue = [0, 1]\nclass = Yes"] ;
290 -> 294 ;
295 [label="entropy = 0.0\nsamples = 1\nvalue = [1, 0]\nclass = No"] ;
289 -> 295 ;
296 [label="entropy = 0.0\nsamples = 1\nvalue = [0, 1]\nclass = Yes"] ;
288 -> 296 ;
297 [label="entropy = 0.0\nsamples = 2\nvalue = [2, 0]\nclass = No"] ;
287 -> 297 ;
298 [label="entropy = 0.0\nsamples = 1\nvalue = [0, 1]\nclass = Yes"] ;
286 -> 298 ;
299 [label="entropy = 0.0\nsamples = 4\nvalue = [4, 0]\nclass = No"] ;
285 -> 299 ;
300 [label="entropy = 0.0\nsamples = 12\nvalue = [12, 0]\nclass = No"] ;
284 -> 300 ;
301 [label="threat_level <= 0.5\nentropy = 0.297\nsamples = 38\nvalue = [36, 2]\nclass = No"] ;
283 -> 301 ;
302 [label="entropy = 0.0\nsamples = 14\nvalue = [14, 0]\nclass = No"] ;
301 -> 302 ;
303 [label="race <= 4.5\nentropy = 0.414\nsamples = 24\nvalue = [22, 2]\nclass = No"] ;
301 -> 303 ;
304 [label="entropy = 0.0\nsamples = 11\nvalue = [11, 0]\nclass = No"] ;
303 -> 304 ;
305 [label="age <= 26.5\nentropy = 0.619\nsamples = 13\nvalue = [11, 2]\nclass = No"] ;
303 -> 305 ;
306 [label="flee <= 0.5\nentropy = 0.811\nsamples = 8\nvalue = [6, 2]\nclass = No"] ;
305 -> 306 ;
307 [label="age <= 20.0\nentropy = 0.592\nsamples = 7\nvalue = [6, 1]\nclass = No"] ;
306 -> 307 ;
308 [label="age <= 12.5\nentropy = 1.0\nsamples = 2\nvalue = [1, 1]\nclass = No"] ;
307 -> 308 ;
309 [label="entropy = 0.0\nsamples = 1\nvalue = [1, 0]\nclass = No"] ;
308 -> 309 ;
310 [label="entropy = 0.0\nsamples = 1\nvalue = [0, 1]\nclass = Yes"] ;
308 -> 310 ;
311 [label="entropy = 0.0\nsamples = 5\nvalue = [5, 0]\nclass = No"] ;
307 -> 311 ;
312 [label="entropy = 0.0\nsamples = 1\nvalue = [0, 1]\nclass = Yes"] ;
306 -> 312 ;
313 [label="entropy = 0.0\nsamples = 5\nvalue = [5, 0]\nclass = No"] ;
305 -> 313 ;
314 [label="entropy = 0.0\nsamples = 33\nvalue = [33, 0]\nclass = No"] ;
282 -> 314 ;
315 [label="gender <= 0.5\nentropy = 0.736\nsamples = 29\nvalue = [23, 6]\nclass = No"] ;
281 -> 315 ;
316 [label="entropy = 0.0\nsamples = 1\nvalue = [0, 1]\nclass = Yes"] ;
315 -> 316 ;
317 [label="flee <= 0.5\nentropy = 0.677\nsamples = 28\nvalue = [23, 5]\nclass = No"] ;
315 -> 317 ;
318 [label="age <= 32.5\nentropy = 0.337\nsamples = 16\nvalue = [15, 1]\nclass = No"] ;
317 -> 318 ;
319 [label="threat_level <= 0.5\nentropy = 0.918\nsamples = 3\nvalue = [2, 1]\nclass = No"] ;
318 -> 319 ;
320 [label="entropy = 0.0\nsamples = 1\nvalue = [0, 1]\nclass = Yes"] ;
319 -> 320 ;
321 [label="entropy = 0.0\nsamples = 2\nvalue = [2, 0]\nclass = No"] ;
319 -> 321 ;
322 [label="entropy = 0.0\nsamples = 13\nvalue = [13, 0]\nclass = No"] ;
318 -> 322 ;
323 [label="age <= 34.5\nentropy = 0.918\nsamples = 12\nvalue = [8, 4]\nclass = No"] ;
317 -> 323 ;
324 [label="entropy = 0.0\nsamples = 3\nvalue = [3, 0]\nclass = No"] ;
323 -> 324 ;
325 [label="race <= 1.5\nentropy = 0.991\nsamples = 9\nvalue = [5, 4]\nclass = No"] ;
323 -> 325 ;
326 [label="body_camera <= 0.5\nentropy = 0.65\nsamples = 6\nvalue = [5, 1]\nclass = No"] ;
325 -> 326 ;
327 [label="entropy = 0.0\nsamples = 5\nvalue = [5, 0]\nclass = No"] ;
326 -> 327 ;
328 [label="entropy = 0.0\nsamples = 1\nvalue = [0, 1]\nclass = Yes"] ;
326 -> 328 ;
329 [label="entropy = 0.0\nsamples = 3\nvalue = [0, 3]\nclass = Yes"] ;
325 -> 329 ;
330 [label="entropy = 0.0\nsamples = 37\nvalue = [37, 0]\nclass = No"] ;
280 -> 330 ;
331 [label="entropy = 0.0\nsamples = 35\nvalue = [35, 0]\nclass = No"] ;
5 -> 331 ;
332 [label="race <= 3.5\nentropy = 0.886\nsamples = 2110\nvalue = [1469, 641]\nclass = No"] ;
0 -> 332 [labeldistance=2.5, labelangle=-45, headlabel="False"] ;
333 [label="armed <= 33.5\nentropy = 0.775\nsamples = 959\nvalue = [740, 219]\nclass = No"] ;
332 -> 333 ;
334 [label="age <= 18.5\nentropy = 0.652\nsamples = 543\nvalue = [452, 91]\nclass = No"] ;
333 -> 334 ;
335 [label="entropy = 0.0\nsamples = 25\nvalue = [25, 0]\nclass = No"] ;
334 -> 335 ;
336 [label="armed <= 9.5\nentropy = 0.671\nsamples = 518\nvalue = [427, 91]\nclass = No"] ;
334 -> 336 ;
337 [label="armed <= 2.0\nentropy = 0.998\nsamples = 17\nvalue = [9, 8]\nclass = No"] ;
336 -> 337 ;
338 [label="body_camera <= 0.5\nentropy = 0.65\nsamples = 6\nvalue = [5, 1]\nclass = No"] ;
337 -> 338 ;
339 [label="entropy = 0.0\nsamples = 4\nvalue = [4, 0]\nclass = No"] ;
338 -> 339 ;
340 [label="age <= 29.5\nentropy = 1.0\nsamples = 2\nvalue = [1, 1]\nclass = No"] ;
338 -> 340 ;
341 [label="entropy = 0.0\nsamples = 1\nvalue = [0, 1]\nclass = Yes"] ;
340 -> 341 ;
342 [label="entropy = 0.0\nsamples = 1\nvalue = [1, 0]\nclass = No"] ;
340 -> 342 ;
343 [label="age <= 43.5\nentropy = 0.946\nsamples = 11\nvalue = [4, 7]\nclass = Yes"] ;
337 -> 343 ;
344 [label="age <= 28.0\nentropy = 1.0\nsamples = 8\nvalue = [4, 4]\nclass = No"] ;
343 -> 344 ;
345 [label="entropy = 0.0\nsamples = 2\nvalue = [0, 2]\nclass = Yes"] ;
344 -> 345 ;
346 [label="threat_level <= 0.5\nentropy = 0.918\nsamples = 6\nvalue = [4, 2]\nclass = No"] ;
344 -> 346 ;
347 [label="race <= 1.5\nentropy = 0.918\nsamples = 3\nvalue = [1, 2]\nclass = Yes"] ;
346 -> 347 ;
348 [label="entropy = 0.0\nsamples = 1\nvalue = [1, 0]\nclass = No"] ;
347 -> 348 ;
349 [label="entropy = 0.0\nsamples = 2\nvalue = [0, 2]\nclass = Yes"] ;
347 -> 349 ;
350 [label="entropy = 0.0\nsamples = 3\nvalue = [3, 0]\nclass = No"] ;
346 -> 350 ;
351 [label="entropy = 0.0\nsamples = 3\nvalue = [0, 3]\nclass = Yes"] ;
343 -> 351 ;
352 [label="race <= 1.5\nentropy = 0.648\nsamples = 501\nvalue = [418, 83]\nclass = No"] ;
336 -> 352 ;
353 [label="flee <= 2.5\nentropy = 0.566\nsamples = 293\nvalue = [254, 39]\nclass = No"] ;
352 -> 353 ;
354 [label="age <= 75.5\nentropy = 0.586\nsamples = 277\nvalue = [238, 39]\nclass = No"] ;
353 -> 354 ;
355 [label="age <= 37.5\nentropy = 0.578\nsamples = 276\nvalue = [238, 38]\nclass = No"] ;
354 -> 355 ;
356 [label="threat_level <= 1.5\nentropy = 0.507\nsamples = 187\nvalue = [166, 21]\nclass = No"] ;
355 -> 356 ;
357 [label="race <= 0.5\nentropy = 0.485\nsamples = 181\nvalue = [162, 19]\nclass = No"] ;
356 -> 357 ;
358 [label="entropy = 0.0\nsamples = 8\nvalue = [8, 0]\nclass = No"] ;
357 -> 358 ;
359 [label="gender <= 0.5\nentropy = 0.499\nsamples = 173\nvalue = [154, 19]\nclass = No"] ;
357 -> 359 ;
360 [label="age <= 31.5\nentropy = 0.863\nsamples = 7\nvalue = [5, 2]\nclass = No"] ;
359 -> 360 ;
361 [label="entropy = 0.0\nsamples = 5\nvalue = [5, 0]\nclass = No"] ;
360 -> 361 ;
362 [label="entropy = 0.0\nsamples = 2\nvalue = [0, 2]\nclass = Yes"] ;
360 -> 362 ;
363 [label="armed <= 25.0\nentropy = 0.477\nsamples = 166\nvalue = [149, 17]\nclass = No"] ;
359 -> 363 ;
364 [label="armed <= 20.5\nentropy = 0.918\nsamples = 3\nvalue = [2, 1]\nclass = No"] ;
363 -> 364 ;
365 [label="entropy = 0.0\nsamples = 2\nvalue = [2, 0]\nclass = No"] ;
364 -> 365 ;
366 [label="entropy = 0.0\nsamples = 1\nvalue = [0, 1]\nclass = Yes"] ;
364 -> 366 ;
367 [label="manner_of_death <= 0.5\nentropy = 0.463\nsamples = 163\nvalue = [147, 16]\nclass = No"] ;
363 -> 367 ;
368 [label="age <= 21.5\nentropy = 0.447\nsamples = 161\nvalue = [146, 15]\nclass = No"] ;
367 -> 368 ;
369 [label="body_camera <= 0.5\nentropy = 0.672\nsamples = 17\nvalue = [14, 3]\nclass = No"] ;
368 -> 369 ;
370 [label="threat_level <= 0.5\nentropy = 0.696\nsamples = 16\nvalue = [13, 3]\nclass = No"] ;
369 -> 370 ;
371 [label="age <= 19.5\nentropy = 0.65\nsamples = 12\nvalue = [10, 2]\nclass = No"] ;
370 -> 371 ;
372 [label="entropy = 0.0\nsamples = 3\nvalue = [3, 0]\nclass = No"] ;
371 -> 372 ;
373 [label="age <= 20.5\nentropy = 0.764\nsamples = 9\nvalue = [7, 2]\nclass = No"] ;
371 -> 373 ;
374 [label="entropy = 0.65\nsamples = 6\nvalue = [5, 1]\nclass = No"] ;
373 -> 374 ;
375 [label="entropy = 0.918\nsamples = 3\nvalue = [2, 1]\nclass = No"] ;
373 -> 375 ;
376 [label="age <= 20.0\nentropy = 0.811\nsamples = 4\nvalue = [3, 1]\nclass = No"] ;
370 -> 376 ;
377 [label="entropy = 1.0\nsamples = 2\nvalue = [1, 1]\nclass = No"] ;
376 -> 377 ;
378 [label="entropy = 0.0\nsamples = 2\nvalue = [2, 0]\nclass = No"] ;
376 -> 378 ;
379 [label="entropy = 0.0\nsamples = 1\nvalue = [1, 0]\nclass = No"] ;
369 -> 379 ;
380 [label="threat_level <= 0.5\nentropy = 0.414\nsamples = 144\nvalue = [132, 12]\nclass = No"] ;
368 -> 380 ;
381 [label="age <= 28.5\nentropy = 0.461\nsamples = 123\nvalue = [111, 12]\nclass = No"] ;
380 -> 381 ;
382 [label="age <= 26.5\nentropy = 0.323\nsamples = 51\nvalue = [48, 3]\nclass = No"] ;
381 -> 382 ;
383 [label="age <= 25.5\nentropy = 0.384\nsamples = 40\nvalue = [37, 3]\nclass = No"] ;
382 -> 383 ;
384 [label="age <= 22.5\nentropy = 0.31\nsamples = 36\nvalue = [34, 2]\nclass = No"] ;
383 -> 384 ;
385 [label="entropy = 0.0\nsamples = 5\nvalue = [5, 0]\nclass = No"] ;
384 -> 385 ;
386 [label="age <= 23.5\nentropy = 0.345\nsamples = 31\nvalue = [29, 2]\nclass = No"] ;
384 -> 386 ;
387 [label="entropy = 0.544\nsamples = 8\nvalue = [7, 1]\nclass = No"] ;
386 -> 387 ;
388 [label="age <= 24.5\nentropy = 0.258\nsamples = 23\nvalue = [22, 1]\nclass = No"] ;
386 -> 388 ;
389 [label="entropy = 0.0\nsamples = 10\nvalue = [10, 0]\nclass = No"] ;
388 -> 389 ;
390 [label="body_camera <= 0.5\nentropy = 0.391\nsamples = 13\nvalue = [12, 1]\nclass = No"] ;
388 -> 390 ;
391 [label="entropy = 0.414\nsamples = 12\nvalue = [11, 1]\nclass = No"] ;
390 -> 391 ;
392 [label="entropy = 0.0\nsamples = 1\nvalue = [1, 0]\nclass = No"] ;
390 -> 392 ;
393 [label="entropy = 0.811\nsamples = 4\nvalue = [3, 1]\nclass = No"] ;
383 -> 393 ;
394 [label="entropy = 0.0\nsamples = 11\nvalue = [11, 0]\nclass = No"] ;
382 -> 394 ;
395 [label="age <= 30.5\nentropy = 0.544\nsamples = 72\nvalue = [63, 9]\nclass = No"] ;
381 -> 395 ;
396 [label="body_camera <= 0.5\nentropy = 0.874\nsamples = 17\nvalue = [12, 5]\nclass = No"] ;
395 -> 396 ;
397 [label="age <= 29.5\nentropy = 0.837\nsamples = 15\nvalue = [11, 4]\nclass = No"] ;
396 -> 397 ;
398 [label="entropy = 0.863\nsamples = 7\nvalue = [5, 2]\nclass = No"] ;
397 -> 398 ;
399 [label="entropy = 0.811\nsamples = 8\nvalue = [6, 2]\nclass = No"] ;
397 -> 399 ;
400 [label="entropy = 1.0\nsamples = 2\nvalue = [1, 1]\nclass = No"] ;
396 -> 400 ;
401 [label="age <= 33.5\nentropy = 0.376\nsamples = 55\nvalue = [51, 4]\nclass = No"] ;
395 -> 401 ;
402 [label="age <= 31.5\nentropy = 0.187\nsamples = 35\nvalue = [34, 1]\nclass = No"] ;
401 -> 402 ;
403 [label="body_camera <= 0.5\nentropy = 0.439\nsamples = 11\nvalue = [10, 1]\nclass = No"] ;
402 -> 403 ;
404 [label="entropy = 0.503\nsamples = 9\nvalue = [8, 1]\nclass = No"] ;
403 -> 404 ;
405 [label="entropy = 0.0\nsamples = 2\nvalue = [2, 0]\nclass = No"] ;
403 -> 405 ;
406 [label="entropy = 0.0\nsamples = 24\nvalue = [24, 0]\nclass = No"] ;
402 -> 406 ;
407 [label="body_camera <= 0.5\nentropy = 0.61\nsamples = 20\nvalue = [17, 3]\nclass = No"] ;
401 -> 407 ;
408 [label="age <= 36.0\nentropy = 0.629\nsamples = 19\nvalue = [16, 3]\nclass = No"] ;
407 -> 408 ;
409 [label="age <= 34.5\nentropy = 0.65\nsamples = 12\nvalue = [10, 2]\nclass = No"] ;
408 -> 409 ;
410 [label="entropy = 0.65\nsamples = 6\nvalue = [5, 1]\nclass = No"] ;
409 -> 410 ;
411 [label="entropy = 0.65\nsamples = 6\nvalue = [5, 1]\nclass = No"] ;
409 -> 411 ;
412 [label="entropy = 0.592\nsamples = 7\nvalue = [6, 1]\nclass = No"] ;
408 -> 412 ;
413 [label="entropy = 0.0\nsamples = 1\nvalue = [1, 0]\nclass = No"] ;
407 -> 413 ;
414 [label="entropy = 0.0\nsamples = 21\nvalue = [21, 0]\nclass = No"] ;
380 -> 414 ;
415 [label="entropy = 1.0\nsamples = 2\nvalue = [1, 1]\nclass = No"] ;
367 -> 415 ;
416 [label="age <= 25.5\nentropy = 0.918\nsamples = 6\nvalue = [4, 2]\nclass = No"] ;
356 -> 416 ;
417 [label="entropy = 0.0\nsamples = 2\nvalue = [2, 0]\nclass = No"] ;
416 -> 417 ;
418 [label="age <= 29.0\nentropy = 1.0\nsamples = 4\nvalue = [2, 2]\nclass = No"] ;
416 -> 418 ;
419 [label="entropy = 0.0\nsamples = 1\nvalue = [0, 1]\nclass = Yes"] ;
418 -> 419 ;
420 [label="age <= 30.5\nentropy = 0.918\nsamples = 3\nvalue = [2, 1]\nclass = No"] ;
418 -> 420 ;
421 [label="entropy = 0.0\nsamples = 1\nvalue = [1, 0]\nclass = No"] ;
420 -> 421 ;
422 [label="body_camera <= 0.5\nentropy = 1.0\nsamples = 2\nvalue = [1, 1]\nclass = No"] ;
420 -> 422 ;
423 [label="entropy = 0.0\nsamples = 1\nvalue = [1, 0]\nclass = No"] ;
422 -> 423 ;
424 [label="entropy = 0.0\nsamples = 1\nvalue = [0, 1]\nclass = Yes"] ;
422 -> 424 ;
425 [label="age <= 38.5\nentropy = 0.704\nsamples = 89\nvalue = [72, 17]\nclass = No"] ;
355 -> 425 ;
426 [label="race <= 0.5\nentropy = 1.0\nsamples = 8\nvalue = [4, 4]\nclass = No"] ;
425 -> 426 ;
427 [label="entropy = 0.0\nsamples = 1\nvalue = [0, 1]\nclass = Yes"] ;
426 -> 427 ;
428 [label="entropy = 0.985\nsamples = 7\nvalue = [4, 3]\nclass = No"] ;
426 -> 428 ;
429 [label="age <= 40.5\nentropy = 0.635\nsamples = 81\nvalue = [68, 13]\nclass = No"] ;
425 -> 429 ;
430 [label="entropy = 0.0\nsamples = 9\nvalue = [9, 0]\nclass = No"] ;
429 -> 430 ;
431 [label="race <= 0.5\nentropy = 0.681\nsamples = 72\nvalue = [59, 13]\nclass = No"] ;
429 -> 431 ;
432 [label="age <= 48.5\nentropy = 1.0\nsamples = 6\nvalue = [3, 3]\nclass = No"] ;
431 -> 432 ;
433 [label="age <= 42.5\nentropy = 0.918\nsamples = 3\nvalue = [2, 1]\nclass = No"] ;
432 -> 433 ;
434 [label="entropy = 1.0\nsamples = 2\nvalue = [1, 1]\nclass = No"] ;
433 -> 434 ;
435 [label="entropy = 0.0\nsamples = 1\nvalue = [1, 0]\nclass = No"] ;
433 -> 435 ;
436 [label="entropy = 0.918\nsamples = 3\nvalue = [1, 2]\nclass = Yes"] ;
432 -> 436 ;
437 [label="age <= 53.5\nentropy = 0.614\nsamples = 66\nvalue = [56, 10]\nclass = No"] ;
431 -> 437 ;
438 [label="age <= 52.5\nentropy = 0.696\nsamples = 48\nvalue = [39, 9]\nclass = No"] ;
437 -> 438 ;
439 [label="age <= 48.5\nentropy = 0.615\nsamples = 46\nvalue = [39, 7]\nclass = No"] ;
438 -> 439 ;
440 [label="body_camera <= 0.5\nentropy = 0.722\nsamples = 35\nvalue = [28, 7]\nclass = No"] ;
439 -> 440 ;
441 [label="age <= 41.5\nentropy = 0.637\nsamples = 31\nvalue = [26, 5]\nclass = No"] ;
440 -> 441 ;
442 [label="entropy = 0.0\nsamples = 8\nvalue = [8, 0]\nclass = No"] ;
441 -> 442 ;
443 [label="age <= 47.5\nentropy = 0.755\nsamples = 23\nvalue = [18, 5]\nclass = No"] ;
441 -> 443 ;
444 [label="gender <= 0.5\nentropy = 0.874\nsamples = 17\nvalue = [12, 5]\nclass = No"] ;
443 -> 444 ;
445 [label="entropy = 0.0\nsamples = 1\nvalue = [0, 1]\nclass = Yes"] ;
444 -> 445 ;
446 [label="age <= 43.5\nentropy = 0.811\nsamples = 16\nvalue = [12, 4]\nclass = No"] ;
444 -> 446 ;
447 [label="manner_of_death <= 0.5\nentropy = 0.954\nsamples = 8\nvalue = [5, 3]\nclass = No"] ;
446 -> 447 ;
448 [label="threat_level <= 0.5\nentropy = 0.985\nsamples = 7\nvalue = [4, 3]\nclass = No"] ;
447 -> 448 ;
449 [label="age <= 42.5\nentropy = 1.0\nsamples = 6\nvalue = [3, 3]\nclass = No"] ;
448 -> 449 ;
450 [label="entropy = 1.0\nsamples = 2\nvalue = [1, 1]\nclass = No"] ;
449 -> 450 ;
451 [label="entropy = 1.0\nsamples = 4\nvalue = [2, 2]\nclass = No"] ;
449 -> 451 ;
452 [label="entropy = 0.0\nsamples = 1\nvalue = [1, 0]\nclass = No"] ;
448 -> 452 ;
453 [label="entropy = 0.0\nsamples = 1\nvalue = [1, 0]\nclass = No"] ;
447 -> 453 ;
454 [label="age <= 45.5\nentropy = 0.544\nsamples = 8\nvalue = [7, 1]\nclass = No"] ;
446 -> 454 ;
455 [label="entropy = 0.0\nsamples = 5\nvalue = [5, 0]\nclass = No"] ;
454 -> 455 ;
456 [label="age <= 46.5\nentropy = 0.918\nsamples = 3\nvalue = [2, 1]\nclass = No"] ;
454 -> 456 ;
457 [label="entropy = 1.0\nsamples = 2\nvalue = [1, 1]\nclass = No"] ;
456 -> 457 ;
458 [label="entropy = 0.0\nsamples = 1\nvalue = [1, 0]\nclass = No"] ;
456 -> 458 ;
459 [label="entropy = 0.0\nsamples = 6\nvalue = [6, 0]\nclass = No"] ;
443 -> 459 ;
460 [label="age <= 42.0\nentropy = 1.0\nsamples = 4\nvalue = [2, 2]\nclass = No"] ;
440 -> 460 ;
461 [label="entropy = 0.0\nsamples = 1\nvalue = [0, 1]\nclass = Yes"] ;
460 -> 461 ;
462 [label="age <= 47.0\nentropy = 0.918\nsamples = 3\nvalue = [2, 1]\nclass = No"] ;
460 -> 462 ;
463 [label="entropy = 0.0\nsamples = 2\nvalue = [2, 0]\nclass = No"] ;
462 -> 463 ;
464 [label="entropy = 0.0\nsamples = 1\nvalue = [0, 1]\nclass = Yes"] ;
462 -> 464 ;
465 [label="entropy = 0.0\nsamples = 11\nvalue = [11, 0]\nclass = No"] ;
439 -> 465 ;
466 [label="entropy = 0.0\nsamples = 2\nvalue = [0, 2]\nclass = Yes"] ;
438 -> 466 ;
467 [label="age <= 65.0\nentropy = 0.31\nsamples = 18\nvalue = [17, 1]\nclass = No"] ;
437 -> 467 ;
468 [label="entropy = 0.0\nsamples = 11\nvalue = [11, 0]\nclass = No"] ;
467 -> 468 ;
469 [label="age <= 67.5\nentropy = 0.592\nsamples = 7\nvalue = [6, 1]\nclass = No"] ;
467 -> 469 ;
470 [label="entropy = 1.0\nsamples = 2\nvalue = [1, 1]\nclass = No"] ;
469 -> 470 ;
471 [label="entropy = 0.0\nsamples = 5\nvalue = [5, 0]\nclass = No"] ;
469 -> 471 ;
472 [label="entropy = 0.0\nsamples = 1\nvalue = [0, 1]\nclass = Yes"] ;
354 -> 472 ;
473 [label="entropy = 0.0\nsamples = 16\nvalue = [16, 0]\nclass = No"] ;
353 -> 473 ;
474 [label="age <= 63.5\nentropy = 0.744\nsamples = 208\nvalue = [164, 44]\nclass = No"] ;
352 -> 474 ;
475 [label="manner_of_death <= 0.5\nentropy = 0.73\nsamples = 206\nvalue = [164, 42]\nclass = No"] ;
474 -> 475 ;
476 [label="age <= 56.0\nentropy = 0.71\nsamples = 201\nvalue = [162, 39]\nclass = No"] ;
475 -> 476 ;
477 [label="age <= 53.5\nentropy = 0.72\nsamples = 196\nvalue = [157, 39]\nclass = No"] ;
476 -> 477 ;
478 [label="armed <= 25.5\nentropy = 0.705\nsamples = 193\nvalue = [156, 37]\nclass = No"] ;
477 -> 478 ;
479 [label="entropy = 0.0\nsamples = 3\nvalue = [3, 0]\nclass = No"] ;
478 -> 479 ;
480 [label="age <= 19.5\nentropy = 0.711\nsamples = 190\nvalue = [153, 37]\nclass = No"] ;
478 -> 480 ;
481 [label="entropy = 0.0\nsamples = 3\nvalue = [3, 0]\nclass = No"] ;
480 -> 481 ;
482 [label="age <= 51.0\nentropy = 0.718\nsamples = 187\nvalue = [150, 37]\nclass = No"] ;
480 -> 482 ;
483 [label="armed <= 31.0\nentropy = 0.724\nsamples = 184\nvalue = [147, 37]\nclass = No"] ;
482 -> 483 ;
484 [label="age <= 25.5\nentropy = 0.728\nsamples = 182\nvalue = [145, 37]\nclass = No"] ;
483 -> 484 ;
485 [label="gender <= 0.5\nentropy = 0.811\nsamples = 40\nvalue = [30, 10]\nclass = No"] ;
484 -> 485 ;
486 [label="entropy = 0.0\nsamples = 1\nvalue = [0, 1]\nclass = Yes"] ;
485 -> 486 ;
487 [label="race <= 2.5\nentropy = 0.779\nsamples = 39\nvalue = [30, 9]\nclass = No"] ;
485 -> 487 ;
488 [label="body_camera <= 0.5\nentropy = 0.811\nsamples = 36\nvalue = [27, 9]\nclass = No"] ;
487 -> 488 ;
489 [label="threat_level <= 1.5\nentropy = 0.758\nsamples = 32\nvalue = [25, 7]\nclass = No"] ;
488 -> 489 ;
490 [label="flee <= 2.5\nentropy = 0.722\nsamples = 30\nvalue = [24, 6]\nclass = No"] ;
489 -> 490 ;
491 [label="age <= 22.5\nentropy = 0.677\nsamples = 28\nvalue = [23, 5]\nclass = No"] ;
490 -> 491 ;
492 [label="threat_level <= 0.5\nentropy = 0.75\nsamples = 14\nvalue = [11, 3]\nclass = No"] ;
491 -> 492 ;
493 [label="age <= 21.5\nentropy = 0.684\nsamples = 11\nvalue = [9, 2]\nclass = No"] ;
492 -> 493 ;
494 [label="entropy = 0.0\nsamples = 4\nvalue = [4, 0]\nclass = No"] ;
493 -> 494 ;
495 [label="entropy = 0.863\nsamples = 7\nvalue = [5, 2]\nclass = No"] ;
493 -> 495 ;
496 [label="age <= 20.5\nentropy = 0.918\nsamples = 3\nvalue = [2, 1]\nclass = No"] ;
492 -> 496 ;
497 [label="entropy = 0.0\nsamples = 1\nvalue = [0, 1]\nclass = Yes"] ;
496 -> 497 ;
498 [label="entropy = 0.0\nsamples = 2\nvalue = [2, 0]\nclass = No"] ;
496 -> 498 ;
499 [label="age <= 23.5\nentropy = 0.592\nsamples = 14\nvalue = [12, 2]\nclass = No"] ;
491 -> 499 ;
500 [label="entropy = 0.0\nsamples = 4\nvalue = [4, 0]\nclass = No"] ;
499 -> 500 ;
501 [label="threat_level <= 0.5\nentropy = 0.722\nsamples = 10\nvalue = [8, 2]\nclass = No"] ;
499 -> 501 ;
502 [label="age <= 24.5\nentropy = 0.764\nsamples = 9\nvalue = [7, 2]\nclass = No"] ;
501 -> 502 ;
503 [label="entropy = 0.811\nsamples = 4\nvalue = [3, 1]\nclass = No"] ;
502 -> 503 ;
504 [label="entropy = 0.722\nsamples = 5\nvalue = [4, 1]\nclass = No"] ;
502 -> 504 ;
505 [label="entropy = 0.0\nsamples = 1\nvalue = [1, 0]\nclass = No"] ;
501 -> 505 ;
506 [label="entropy = 1.0\nsamples = 2\nvalue = [1, 1]\nclass = No"] ;
490 -> 506 ;
507 [label="age <= 23.5\nentropy = 1.0\nsamples = 2\nvalue = [1, 1]\nclass = No"] ;
489 -> 507 ;
508 [label="entropy = 0.0\nsamples = 1\nvalue = [0, 1]\nclass = Yes"] ;
507 -> 508 ;
509 [label="entropy = 0.0\nsamples = 1\nvalue = [1, 0]\nclass = No"] ;
507 -> 509 ;
510 [label="threat_level <= 0.5\nentropy = 1.0\nsamples = 4\nvalue = [2, 2]\nclass = No"] ;
488 -> 510 ;
511 [label="entropy = 0.918\nsamples = 3\nvalue = [1, 2]\nclass = Yes"] ;
510 -> 511 ;
512 [label="entropy = 0.0\nsamples = 1\nvalue = [1, 0]\nclass = No"] ;
510 -> 512 ;
513 [label="entropy = 0.0\nsamples = 3\nvalue = [3, 0]\nclass = No"] ;
487 -> 513 ;
514 [label="age <= 26.5\nentropy = 0.702\nsamples = 142\nvalue = [115, 27]\nclass = No"] ;
484 -> 514 ;
515 [label="entropy = 0.0\nsamples = 7\nvalue = [7, 0]\nclass = No"] ;
514 -> 515 ;
516 [label="threat_level <= 0.5\nentropy = 0.722\nsamples = 135\nvalue = [108, 27]\nclass = No"] ;
514 -> 516 ;
517 [label="age <= 40.5\nentropy = 0.768\nsamples = 107\nvalue = [83, 24]\nclass = No"] ;
516 -> 517 ;
518 [label="age <= 38.5\nentropy = 0.816\nsamples = 83\nvalue = [62, 21]\nclass = No"] ;
517 -> 518 ;
519 [label="body_camera <= 0.5\nentropy = 0.783\nsamples = 73\nvalue = [56, 17]\nclass = No"] ;
518 -> 519 ;
520 [label="race <= 2.5\nentropy = 0.818\nsamples = 63\nvalue = [47, 16]\nclass = No"] ;
519 -> 520 ;
521 [label="age <= 32.5\nentropy = 0.863\nsamples = 56\nvalue = [40, 16]\nclass = No"] ;
520 -> 521 ;
522 [label="flee <= 2.5\nentropy = 0.764\nsamples = 27\nvalue = [21, 6]\nclass = No"] ;
521 -> 522 ;
523 [label="age <= 27.5\nentropy = 0.779\nsamples = 26\nvalue = [20, 6]\nclass = No"] ;
522 -> 523 ;
524 [label="entropy = 0.65\nsamples = 6\nvalue = [5, 1]\nclass = No"] ;
523 -> 524 ;
525 [label="age <= 28.5\nentropy = 0.811\nsamples = 20\nvalue = [15, 5]\nclass = No"] ;
523 -> 525 ;
526 [label="entropy = 0.918\nsamples = 3\nvalue = [2, 1]\nclass = No"] ;
525 -> 526 ;
527 [label="age <= 30.0\nentropy = 0.787\nsamples = 17\nvalue = [13, 4]\nclass = No"] ;
525 -> 527 ;
528 [label="entropy = 0.65\nsamples = 6\nvalue = [5, 1]\nclass = No"] ;
527 -> 528 ;
529 [label="age <= 31.5\nentropy = 0.845\nsamples = 11\nvalue = [8, 3]\nclass = No"] ;
527 -> 529 ;
530 [label="entropy = 0.918\nsamples = 6\nvalue = [4, 2]\nclass = No"] ;
529 -> 530 ;
531 [label="entropy = 0.722\nsamples = 5\nvalue = [4, 1]\nclass = No"] ;
529 -> 531 ;
532 [label="entropy = 0.0\nsamples = 1\nvalue = [1, 0]\nclass = No"] ;
522 -> 532 ;
533 [label="age <= 33.5\nentropy = 0.929\nsamples = 29\nvalue = [19, 10]\nclass = No"] ;
521 -> 533 ;
534 [label="flee <= 2.5\nentropy = 0.991\nsamples = 9\nvalue = [4, 5]\nclass = Yes"] ;
533 -> 534 ;
535 [label="entropy = 0.954\nsamples = 8\nvalue = [3, 5]\nclass = Yes"] ;
534 -> 535 ;
536 [label="entropy = 0.0\nsamples = 1\nvalue = [1, 0]\nclass = No"] ;
534 -> 536 ;
537 [label="age <= 34.5\nentropy = 0.811\nsamples = 20\nvalue = [15, 5]\nclass = No"] ;
533 -> 537 ;
538 [label="flee <= 2.5\nentropy = 0.592\nsamples = 7\nvalue = [6, 1]\nclass = No"] ;
537 -> 538 ;
539 [label="entropy = 0.65\nsamples = 6\nvalue = [5, 1]\nclass = No"] ;
538 -> 539 ;
540 [label="entropy = 0.0\nsamples = 1\nvalue = [1, 0]\nclass = No"] ;
538 -> 540 ;
541 [label="flee <= 2.5\nentropy = 0.89\nsamples = 13\nvalue = [9, 4]\nclass = No"] ;
537 -> 541 ;
542 [label="age <= 35.5\nentropy = 0.811\nsamples = 12\nvalue = [9, 3]\nclass = No"] ;
541 -> 542 ;
543 [label="entropy = 0.0\nsamples = 3\nvalue = [3, 0]\nclass = No"] ;
542 -> 543 ;
544 [label="age <= 36.5\nentropy = 0.918\nsamples = 9\nvalue = [6, 3]\nclass = No"] ;
542 -> 544 ;
545 [label="entropy = 1.0\nsamples = 4\nvalue = [2, 2]\nclass = No"] ;
544 -> 545 ;
546 [label="age <= 37.5\nentropy = 0.722\nsamples = 5\nvalue = [4, 1]\nclass = No"] ;
544 -> 546 ;
547 [label="entropy = 0.0\nsamples = 2\nvalue = [2, 0]\nclass = No"] ;
546 -> 547 ;
548 [label="entropy = 0.918\nsamples = 3\nvalue = [2, 1]\nclass = No"] ;
546 -> 548 ;
549 [label="entropy = 0.0\nsamples = 1\nvalue = [0, 1]\nclass = Yes"] ;
541 -> 549 ;
550 [label="entropy = 0.0\nsamples = 7\nvalue = [7, 0]\nclass = No"] ;
520 -> 550 ;
551 [label="race <= 2.5\nentropy = 0.469\nsamples = 10\nvalue = [9, 1]\nclass = No"] ;
519 -> 551 ;
552 [label="entropy = 0.0\nsamples = 9\nvalue = [9, 0]\nclass = No"] ;
551 -> 552 ;
553 [label="entropy = 0.0\nsamples = 1\nvalue = [0, 1]\nclass = Yes"] ;
551 -> 553 ;
554 [label="race <= 2.5\nentropy = 0.971\nsamples = 10\nvalue = [6, 4]\nclass = No"] ;
518 -> 554 ;
555 [label="age <= 39.5\nentropy = 0.918\nsamples = 9\nvalue = [6, 3]\nclass = No"] ;
554 -> 555 ;
556 [label="entropy = 0.918\nsamples = 6\nvalue = [4, 2]\nclass = No"] ;
555 -> 556 ;
557 [label="entropy = 0.918\nsamples = 3\nvalue = [2, 1]\nclass = No"] ;
555 -> 557 ;
558 [label="entropy = 0.0\nsamples = 1\nvalue = [0, 1]\nclass = Yes"] ;
554 -> 558 ;
559 [label="age <= 42.5\nentropy = 0.544\nsamples = 24\nvalue = [21, 3]\nclass = No"] ;
517 -> 559 ;
560 [label="entropy = 0.0\nsamples = 6\nvalue = [6, 0]\nclass = No"] ;
559 -> 560 ;
561 [label="flee <= 2.5\nentropy = 0.65\nsamples = 18\nvalue = [15, 3]\nclass = No"] ;
559 -> 561 ;
562 [label="age <= 49.0\nentropy = 0.544\nsamples = 16\nvalue = [14, 2]\nclass = No"] ;
561 -> 562 ;
563 [label="age <= 43.5\nentropy = 0.391\nsamples = 13\nvalue = [12, 1]\nclass = No"] ;
562 -> 563 ;
564 [label="body_camera <= 0.5\nentropy = 0.811\nsamples = 4\nvalue = [3, 1]\nclass = No"] ;
563 -> 564 ;
565 [label="entropy = 0.918\nsamples = 3\nvalue = [2, 1]\nclass = No"] ;
564 -> 565 ;
566 [label="entropy = 0.0\nsamples = 1\nvalue = [1, 0]\nclass = No"] ;
564 -> 566 ;
567 [label="entropy = 0.0\nsamples = 9\nvalue = [9, 0]\nclass = No"] ;
563 -> 567 ;
568 [label="entropy = 0.918\nsamples = 3\nvalue = [2, 1]\nclass = No"] ;
562 -> 568 ;
569 [label="race <= 2.5\nentropy = 1.0\nsamples = 2\nvalue = [1, 1]\nclass = No"] ;
561 -> 569 ;
570 [label="entropy = 0.0\nsamples = 1\nvalue = [0, 1]\nclass = Yes"] ;
569 -> 570 ;
571 [label="entropy = 0.0\nsamples = 1\nvalue = [1, 0]\nclass = No"] ;
569 -> 571 ;
572 [label="age <= 42.5\nentropy = 0.491\nsamples = 28\nvalue = [25, 3]\nclass = No"] ;
516 -> 572 ;
573 [label="entropy = 0.0\nsamples = 22\nvalue = [22, 0]\nclass = No"] ;
572 -> 573 ;
574 [label="race <= 2.5\nentropy = 1.0\nsamples = 6\nvalue = [3, 3]\nclass = No"] ;
572 -> 574 ;
575 [label="gender <= 0.5\nentropy = 0.811\nsamples = 4\nvalue = [1, 3]\nclass = Yes"] ;
574 -> 575 ;
576 [label="entropy = 0.0\nsamples = 1\nvalue = [1, 0]\nclass = No"] ;
575 -> 576 ;
577 [label="entropy = 0.0\nsamples = 3\nvalue = [0, 3]\nclass = Yes"] ;
575 -> 577 ;
578 [label="entropy = 0.0\nsamples = 2\nvalue = [2, 0]\nclass = No"] ;
574 -> 578 ;
579 [label="entropy = 0.0\nsamples = 2\nvalue = [2, 0]\nclass = No"] ;
483 -> 579 ;
580 [label="entropy = 0.0\nsamples = 3\nvalue = [3, 0]\nclass = No"] ;
482 -> 580 ;
581 [label="threat_level <= 0.5\nentropy = 0.918\nsamples = 3\nvalue = [1, 2]\nclass = Yes"] ;
477 -> 581 ;
582 [label="entropy = 1.0\nsamples = 2\nvalue = [1, 1]\nclass = No"] ;
581 -> 582 ;
583 [label="entropy = 0.0\nsamples = 1\nvalue = [0, 1]\nclass = Yes"] ;
581 -> 583 ;
584 [label="entropy = 0.0\nsamples = 5\nvalue = [5, 0]\nclass = No"] ;
476 -> 584 ;
585 [label="age <= 37.0\nentropy = 0.971\nsamples = 5\nvalue = [2, 3]\nclass = Yes"] ;
475 -> 585 ;
586 [label="entropy = 0.0\nsamples = 2\nvalue = [2, 0]\nclass = No"] ;
585 -> 586 ;
587 [label="entropy = 0.0\nsamples = 3\nvalue = [0, 3]\nclass = Yes"] ;
585 -> 587 ;
588 [label="entropy = 0.0\nsamples = 2\nvalue = [0, 2]\nclass = Yes"] ;
474 -> 588 ;
589 [label="flee <= 2.5\nentropy = 0.89\nsamples = 416\nvalue = [288, 128]\nclass = No"] ;
333 -> 589 ;
590 [label="threat_level <= 1.5\nentropy = 0.903\nsamples = 402\nvalue = [274, 128]\nclass = No"] ;
589 -> 590 ;
591 [label="threat_level <= 0.5\nentropy = 0.918\nsamples = 375\nvalue = [250, 125]\nclass = No"] ;
590 -> 591 ;
592 [label="age <= 61.5\nentropy = 0.809\nsamples = 161\nvalue = [121, 40]\nclass = No"] ;
591 -> 592 ;
593 [label="armed <= 38.5\nentropy = 0.782\nsamples = 155\nvalue = [119, 36]\nclass = No"] ;
592 -> 593 ;
594 [label="entropy = 0.0\nsamples = 1\nvalue = [0, 1]\nclass = Yes"] ;
593 -> 594 ;
595 [label="armed <= 80.0\nentropy = 0.773\nsamples = 154\nvalue = [119, 35]\nclass = No"] ;
593 -> 595 ;
596 [label="race <= 1.5\nentropy = 0.764\nsamples = 153\nvalue = [119, 34]\nclass = No"] ;
595 -> 596 ;
597 [label="age <= 20.5\nentropy = 0.832\nsamples = 91\nvalue = [67, 24]\nclass = No"] ;
596 -> 597 ;
598 [label="entropy = 0.0\nsamples = 8\nvalue = [8, 0]\nclass = No"] ;
597 -> 598 ;
599 [label="age <= 48.5\nentropy = 0.868\nsamples = 83\nvalue = [59, 24]\nclass = No"] ;
597 -> 599 ;
600 [label="age <= 44.5\nentropy = 0.9\nsamples = 76\nvalue = [52, 24]\nclass = No"] ;
599 -> 600 ;
601 [label="armed <= 77.5\nentropy = 0.866\nsamples = 73\nvalue = [52, 21]\nclass = No"] ;
600 -> 601 ;
602 [label="armed <= 70.0\nentropy = 0.876\nsamples = 71\nvalue = [50, 21]\nclass = No"] ;
601 -> 602 ;
603 [label="age <= 37.5\nentropy = 0.802\nsamples = 45\nvalue = [34, 11]\nclass = No"] ;
602 -> 603 ;
604 [label="armed <= 53.5\nentropy = 0.888\nsamples = 36\nvalue = [25, 11]\nclass = No"] ;
603 -> 604 ;
605 [label="age <= 24.0\nentropy = 0.928\nsamples = 32\nvalue = [21, 11]\nclass = No"] ;
604 -> 605 ;
606 [label="entropy = 0.0\nsamples = 1\nvalue = [0, 1]\nclass = Yes"] ;
605 -> 606 ;
607 [label="manner_of_death <= 0.5\nentropy = 0.907\nsamples = 31\nvalue = [21, 10]\nclass = No"] ;
605 -> 607 ;
608 [label="armed <= 44.5\nentropy = 0.881\nsamples = 30\nvalue = [21, 9]\nclass = No"] ;
607 -> 608 ;
609 [label="age <= 25.5\nentropy = 0.85\nsamples = 29\nvalue = [21, 8]\nclass = No"] ;
608 -> 609 ;
610 [label="entropy = 1.0\nsamples = 6\nvalue = [3, 3]\nclass = No"] ;
609 -> 610 ;
611 [label="age <= 27.5\nentropy = 0.755\nsamples = 23\nvalue = [18, 5]\nclass = No"] ;
609 -> 611 ;
612 [label="entropy = 0.0\nsamples = 4\nvalue = [4, 0]\nclass = No"] ;
611 -> 612 ;
613 [label="race <= 0.5\nentropy = 0.831\nsamples = 19\nvalue = [14, 5]\nclass = No"] ;
611 -> 613 ;
614 [label="entropy = 0.0\nsamples = 2\nvalue = [2, 0]\nclass = No"] ;
613 -> 614 ;
615 [label="age <= 32.5\nentropy = 0.874\nsamples = 17\nvalue = [12, 5]\nclass = No"] ;
613 -> 615 ;
616 [label="age <= 30.5\nentropy = 0.971\nsamples = 10\nvalue = [6, 4]\nclass = No"] ;
615 -> 616 ;
617 [label="gender <= 0.5\nentropy = 0.863\nsamples = 7\nvalue = [5, 2]\nclass = No"] ;
616 -> 617 ;
618 [label="entropy = 0.0\nsamples = 1\nvalue = [1, 0]\nclass = No"] ;
617 -> 618 ;
619 [label="age <= 28.5\nentropy = 0.918\nsamples = 6\nvalue = [4, 2]\nclass = No"] ;
617 -> 619 ;
620 [label="entropy = 1.0\nsamples = 2\nvalue = [1, 1]\nclass = No"] ;
619 -> 620 ;
621 [label="age <= 29.5\nentropy = 0.811\nsamples = 4\nvalue = [3, 1]\nclass = No"] ;
619 -> 621 ;
622 [label="entropy = 0.0\nsamples = 2\nvalue = [2, 0]\nclass = No"] ;
621 -> 622 ;
623 [label="entropy = 1.0\nsamples = 2\nvalue = [1, 1]\nclass = No"] ;
621 -> 623 ;
624 [label="body_camera <= 0.5\nentropy = 0.918\nsamples = 3\nvalue = [1, 2]\nclass = Yes"] ;
616 -> 624 ;
625 [label="entropy = 0.0\nsamples = 1\nvalue = [0, 1]\nclass = Yes"] ;
624 -> 625 ;
626 [label="age <= 31.5\nentropy = 1.0\nsamples = 2\nvalue = [1, 1]\nclass = No"] ;
624 -> 626 ;
627 [label="entropy = 0.0\nsamples = 1\nvalue = [0, 1]\nclass = Yes"] ;
626 -> 627 ;
628 [label="entropy = 0.0\nsamples = 1\nvalue = [1, 0]\nclass = No"] ;
626 -> 628 ;
629 [label="age <= 35.5\nentropy = 0.592\nsamples = 7\nvalue = [6, 1]\nclass = No"] ;
615 -> 629 ;
630 [label="entropy = 0.0\nsamples = 3\nvalue = [3, 0]\nclass = No"] ;
629 -> 630 ;
631 [label="age <= 36.5\nentropy = 0.811\nsamples = 4\nvalue = [3, 1]\nclass = No"] ;
629 -> 631 ;
632 [label="entropy = 0.918\nsamples = 3\nvalue = [2, 1]\nclass = No"] ;
631 -> 632 ;
633 [label="entropy = 0.0\nsamples = 1\nvalue = [1, 0]\nclass = No"] ;
631 -> 633 ;
634 [label="entropy = 0.0\nsamples = 1\nvalue = [0, 1]\nclass = Yes"] ;
608 -> 634 ;
635 [label="entropy = 0.0\nsamples = 1\nvalue = [0, 1]\nclass = Yes"] ;
607 -> 635 ;
636 [label="entropy = 0.0\nsamples = 4\nvalue = [4, 0]\nclass = No"] ;
604 -> 636 ;
637 [label="entropy = 0.0\nsamples = 9\nvalue = [9, 0]\nclass = No"] ;
603 -> 637 ;
638 [label="age <= 28.5\nentropy = 0.961\nsamples = 26\nvalue = [16, 10]\nclass = No"] ;
602 -> 638 ;
639 [label="age <= 22.0\nentropy = 0.592\nsamples = 7\nvalue = [6, 1]\nclass = No"] ;
638 -> 639 ;
640 [label="armed <= 75.5\nentropy = 1.0\nsamples = 2\nvalue = [1, 1]\nclass = No"] ;
639 -> 640 ;
641 [label="entropy = 0.0\nsamples = 1\nvalue = [0, 1]\nclass = Yes"] ;
640 -> 641 ;
642 [label="entropy = 0.0\nsamples = 1\nvalue = [1, 0]\nclass = No"] ;
640 -> 642 ;
643 [label="entropy = 0.0\nsamples = 5\nvalue = [5, 0]\nclass = No"] ;
639 -> 643 ;
644 [label="age <= 31.5\nentropy = 0.998\nsamples = 19\nvalue = [10, 9]\nclass = No"] ;
638 -> 644 ;
645 [label="age <= 29.5\nentropy = 0.722\nsamples = 5\nvalue = [1, 4]\nclass = Yes"] ;
644 -> 645 ;
646 [label="entropy = 1.0\nsamples = 2\nvalue = [1, 1]\nclass = No"] ;
645 -> 646 ;
647 [label="entropy = 0.0\nsamples = 3\nvalue = [0, 3]\nclass = Yes"] ;
645 -> 647 ;
648 [label="body_camera <= 0.5\nentropy = 0.94\nsamples = 14\nvalue = [9, 5]\nclass = No"] ;
644 -> 648 ;
649 [label="age <= 35.5\nentropy = 0.845\nsamples = 11\nvalue = [8, 3]\nclass = No"] ;
648 -> 649 ;
650 [label="armed <= 75.5\nentropy = 0.971\nsamples = 5\nvalue = [3, 2]\nclass = No"] ;
649 -> 650 ;
651 [label="age <= 32.5\nentropy = 1.0\nsamples = 4\nvalue = [2, 2]\nclass = No"] ;
650 -> 651 ;
652 [label="entropy = 0.0\nsamples = 1\nvalue = [1, 0]\nclass = No"] ;
651 -> 652 ;
653 [label="age <= 33.5\nentropy = 0.918\nsamples = 3\nvalue = [1, 2]\nclass = Yes"] ;
651 -> 653 ;
654 [label="entropy = 0.0\nsamples = 1\nvalue = [0, 1]\nclass = Yes"] ;
653 -> 654 ;
655 [label="age <= 34.5\nentropy = 1.0\nsamples = 2\nvalue = [1, 1]\nclass = No"] ;
653 -> 655 ;
656 [label="entropy = 0.0\nsamples = 1\nvalue = [1, 0]\nclass = No"] ;
655 -> 656 ;
657 [label="entropy = 0.0\nsamples = 1\nvalue = [0, 1]\nclass = Yes"] ;
655 -> 657 ;
658 [label="entropy = 0.0\nsamples = 1\nvalue = [1, 0]\nclass = No"] ;
650 -> 658 ;
659 [label="age <= 37.5\nentropy = 0.65\nsamples = 6\nvalue = [5, 1]\nclass = No"] ;
649 -> 659 ;
660 [label="entropy = 0.0\nsamples = 3\nvalue = [3, 0]\nclass = No"] ;
659 -> 660 ;
661 [label="entropy = 0.918\nsamples = 3\nvalue = [2, 1]\nclass = No"] ;
659 -> 661 ;
662 [label="age <= 43.5\nentropy = 0.918\nsamples = 3\nvalue = [1, 2]\nclass = Yes"] ;
648 -> 662 ;
663 [label="entropy = 0.0\nsamples = 2\nvalue = [0, 2]\nclass = Yes"] ;
662 -> 663 ;
664 [label="entropy = 0.0\nsamples = 1\nvalue = [1, 0]\nclass = No"] ;
662 -> 664 ;
665 [label="entropy = 0.0\nsamples = 2\nvalue = [2, 0]\nclass = No"] ;
601 -> 665 ;
666 [label="entropy = 0.0\nsamples = 3\nvalue = [0, 3]\nclass = Yes"] ;
600 -> 666 ;
667 [label="entropy = 0.0\nsamples = 7\nvalue = [7, 0]\nclass = No"] ;
599 -> 667 ;
668 [label="age <= 20.5\nentropy = 0.637\nsamples = 62\nvalue = [52, 10]\nclass = No"] ;
596 -> 668 ;
669 [label="body_camera <= 0.5\nentropy = 0.722\nsamples = 5\nvalue = [1, 4]\nclass = Yes"] ;
668 -> 669 ;
670 [label="entropy = 0.0\nsamples = 3\nvalue = [0, 3]\nclass = Yes"] ;
669 -> 670 ;
671 [label="age <= 17.0\nentropy = 1.0\nsamples = 2\nvalue = [1, 1]\nclass = No"] ;
669 -> 671 ;
672 [label="entropy = 0.0\nsamples = 1\nvalue = [0, 1]\nclass = Yes"] ;
671 -> 672 ;
673 [label="entropy = 0.0\nsamples = 1\nvalue = [1, 0]\nclass = No"] ;
671 -> 673 ;
674 [label="armed <= 66.5\nentropy = 0.485\nsamples = 57\nvalue = [51, 6]\nclass = No"] ;
668 -> 674 ;
675 [label="age <= 49.5\nentropy = 0.191\nsamples = 34\nvalue = [33, 1]\nclass = No"] ;
674 -> 675 ;
676 [label="entropy = 0.0\nsamples = 28\nvalue = [28, 0]\nclass = No"] ;
675 -> 676 ;
677 [label="age <= 50.5\nentropy = 0.65\nsamples = 6\nvalue = [5, 1]\nclass = No"] ;
675 -> 677 ;
678 [label="entropy = 0.0\nsamples = 1\nvalue = [0, 1]\nclass = Yes"] ;
677 -> 678 ;
679 [label="entropy = 0.0\nsamples = 5\nvalue = [5, 0]\nclass = No"] ;
677 -> 679 ;
680 [label="age <= 39.5\nentropy = 0.755\nsamples = 23\nvalue = [18, 5]\nclass = No"] ;
674 -> 680 ;
681 [label="armed <= 75.5\nentropy = 0.567\nsamples = 15\nvalue = [13, 2]\nclass = No"] ;
680 -> 681 ;
682 [label="age <= 21.5\nentropy = 0.371\nsamples = 14\nvalue = [13, 1]\nclass = No"] ;
681 -> 682 ;
683 [label="armed <= 74.5\nentropy = 1.0\nsamples = 2\nvalue = [1, 1]\nclass = No"] ;
682 -> 683 ;
684 [label="entropy = 0.0\nsamples = 1\nvalue = [1, 0]\nclass = No"] ;
683 -> 684 ;
685 [label="entropy = 0.0\nsamples = 1\nvalue = [0, 1]\nclass = Yes"] ;
683 -> 685 ;
686 [label="entropy = 0.0\nsamples = 12\nvalue = [12, 0]\nclass = No"] ;
682 -> 686 ;
687 [label="entropy = 0.0\nsamples = 1\nvalue = [0, 1]\nclass = Yes"] ;
681 -> 687 ;
688 [label="age <= 58.5\nentropy = 0.954\nsamples = 8\nvalue = [5, 3]\nclass = No"] ;
680 -> 688 ;
689 [label="body_camera <= 0.5\nentropy = 1.0\nsamples = 6\nvalue = [3, 3]\nclass = No"] ;
688 -> 689 ;
690 [label="armed <= 74.5\nentropy = 0.971\nsamples = 5\nvalue = [3, 2]\nclass = No"] ;
689 -> 690 ;
691 [label="age <= 46.5\nentropy = 0.918\nsamples = 3\nvalue = [1, 2]\nclass = Yes"] ;
690 -> 691 ;
692 [label="entropy = 0.0\nsamples = 1\nvalue = [1, 0]\nclass = No"] ;
691 -> 692 ;
693 [label="entropy = 0.0\nsamples = 2\nvalue = [0, 2]\nclass = Yes"] ;
691 -> 693 ;
694 [label="entropy = 0.0\nsamples = 2\nvalue = [2, 0]\nclass = No"] ;
690 -> 694 ;
695 [label="entropy = 0.0\nsamples = 1\nvalue = [0, 1]\nclass = Yes"] ;
689 -> 695 ;
696 [label="entropy = 0.0\nsamples = 2\nvalue = [2, 0]\nclass = No"] ;
688 -> 696 ;
697 [label="entropy = 0.0\nsamples = 1\nvalue = [0, 1]\nclass = Yes"] ;
595 -> 697 ;
698 [label="armed <= 44.0\nentropy = 0.918\nsamples = 6\nvalue = [2, 4]\nclass = Yes"] ;
592 -> 698 ;
699 [label="entropy = 0.0\nsamples = 3\nvalue = [0, 3]\nclass = Yes"] ;
698 -> 699 ;
700 [label="armed <= 64.5\nentropy = 0.918\nsamples = 3\nvalue = [2, 1]\nclass = No"] ;
698 -> 700 ;
701 [label="entropy = 0.0\nsamples = 2\nvalue = [2, 0]\nclass = No"] ;
700 -> 701 ;
702 [label="entropy = 0.0\nsamples = 1\nvalue = [0, 1]\nclass = Yes"] ;
700 -> 702 ;
703 [label="age <= 56.5\nentropy = 0.969\nsamples = 214\nvalue = [129, 85]\nclass = No"] ;
591 -> 703 ;
704 [label="armed <= 59.0\nentropy = 0.982\nsamples = 197\nvalue = [114, 83]\nclass = No"] ;
703 -> 704 ;
705 [label="armed <= 44.0\nentropy = 1.0\nsamples = 123\nvalue = [62, 61]\nclass = No"] ;
704 -> 705 ;
706 [label="age <= 22.5\nentropy = 0.998\nsamples = 118\nvalue = [62, 56]\nclass = No"] ;
705 -> 706 ;
707 [label="race <= 0.5\nentropy = 0.811\nsamples = 16\nvalue = [12, 4]\nclass = No"] ;
706 -> 707 ;
708 [label="entropy = 0.0\nsamples = 1\nvalue = [0, 1]\nclass = Yes"] ;
707 -> 708 ;
709 [label="body_camera <= 0.5\nentropy = 0.722\nsamples = 15\nvalue = [12, 3]\nclass = No"] ;
707 -> 709 ;
710 [label="race <= 2.5\nentropy = 0.811\nsamples = 12\nvalue = [9, 3]\nclass = No"] ;
709 -> 710 ;
711 [label="age <= 17.5\nentropy = 0.881\nsamples = 10\nvalue = [7, 3]\nclass = No"] ;
710 -> 711 ;
712 [label="entropy = 0.0\nsamples = 1\nvalue = [0, 1]\nclass = Yes"] ;
711 -> 712 ;
713 [label="age <= 19.5\nentropy = 0.764\nsamples = 9\nvalue = [7, 2]\nclass = No"] ;
711 -> 713 ;
714 [label="entropy = 0.0\nsamples = 3\nvalue = [3, 0]\nclass = No"] ;
713 -> 714 ;
715 [label="armed <= 38.5\nentropy = 0.918\nsamples = 6\nvalue = [4, 2]\nclass = No"] ;
713 -> 715 ;
716 [label="entropy = 0.0\nsamples = 1\nvalue = [1, 0]\nclass = No"] ;
715 -> 716 ;
717 [label="age <= 20.5\nentropy = 0.971\nsamples = 5\nvalue = [3, 2]\nclass = No"] ;
715 -> 717 ;
718 [label="entropy = 0.0\nsamples = 1\nvalue = [0, 1]\nclass = Yes"] ;
717 -> 718 ;
719 [label="race <= 1.5\nentropy = 0.811\nsamples = 4\nvalue = [3, 1]\nclass = No"] ;
717 -> 719 ;
720 [label="entropy = 0.0\nsamples = 1\nvalue = [1, 0]\nclass = No"] ;
719 -> 720 ;
721 [label="age <= 21.5\nentropy = 0.918\nsamples = 3\nvalue = [2, 1]\nclass = No"] ;
719 -> 721 ;
722 [label="entropy = 0.0\nsamples = 1\nvalue = [1, 0]\nclass = No"] ;
721 -> 722 ;
723 [label="entropy = 1.0\nsamples = 2\nvalue = [1, 1]\nclass = No"] ;
721 -> 723 ;
724 [label="entropy = 0.0\nsamples = 2\nvalue = [2, 0]\nclass = No"] ;
710 -> 724 ;
725 [label="entropy = 0.0\nsamples = 3\nvalue = [3, 0]\nclass = No"] ;
709 -> 725 ;
726 [label="gender <= 0.5\nentropy = 1.0\nsamples = 102\nvalue = [50, 52]\nclass = Yes"] ;
706 -> 726 ;
727 [label="armed <= 38.5\nentropy = 0.65\nsamples = 6\nvalue = [1, 5]\nclass = Yes"] ;
726 -> 727 ;
728 [label="entropy = 0.0\nsamples = 1\nvalue = [1, 0]\nclass = No"] ;
727 -> 728 ;
729 [label="entropy = 0.0\nsamples = 5\nvalue = [0, 5]\nclass = Yes"] ;
727 -> 729 ;
730 [label="age <= 33.5\nentropy = 1.0\nsamples = 96\nvalue = [49, 47]\nclass = No"] ;
726 -> 730 ;
731 [label="age <= 32.5\nentropy = 0.971\nsamples = 40\nvalue = [16, 24]\nclass = Yes"] ;
730 -> 731 ;
732 [label="armed <= 38.5\nentropy = 0.982\nsamples = 38\nvalue = [16, 22]\nclass = Yes"] ;
731 -> 732 ;
733 [label="entropy = 0.0\nsamples = 1\nvalue = [1, 0]\nclass = No"] ;
732 -> 733 ;
734 [label="age <= 29.5\nentropy = 0.974\nsamples = 37\nvalue = [15, 22]\nclass = Yes"] ;
732 -> 734 ;
735 [label="race <= 0.5\nentropy = 0.992\nsamples = 29\nvalue = [13, 16]\nclass = Yes"] ;
734 -> 735 ;
736 [label="entropy = 0.0\nsamples = 1\nvalue = [0, 1]\nclass = Yes"] ;
735 -> 736 ;
737 [label="age <= 23.5\nentropy = 0.996\nsamples = 28\nvalue = [13, 15]\nclass = Yes"] ;
735 -> 737 ;
738 [label="race <= 1.5\nentropy = 0.811\nsamples = 4\nvalue = [1, 3]\nclass = Yes"] ;
737 -> 738 ;
739 [label="entropy = 0.0\nsamples = 3\nvalue = [0, 3]\nclass = Yes"] ;
738 -> 739 ;
740 [label="entropy = 0.0\nsamples = 1\nvalue = [1, 0]\nclass = No"] ;
738 -> 740 ;
741 [label="body_camera <= 0.5\nentropy = 1.0\nsamples = 24\nvalue = [12, 12]\nclass = No"] ;
737 -> 741 ;
742 [label="age <= 27.5\nentropy = 0.998\nsamples = 21\nvalue = [10, 11]\nclass = Yes"] ;
741 -> 742 ;
743 [label="race <= 2.5\nentropy = 0.985\nsamples = 14\nvalue = [8, 6]\nclass = No"] ;
742 -> 743 ;
744 [label="race <= 1.5\nentropy = 0.996\nsamples = 13\nvalue = [7, 6]\nclass = No"] ;
743 -> 744 ;
745 [label="age <= 25.5\nentropy = 0.971\nsamples = 10\nvalue = [6, 4]\nclass = No"] ;
744 -> 745 ;
746 [label="age <= 24.5\nentropy = 0.918\nsamples = 3\nvalue = [1, 2]\nclass = Yes"] ;
745 -> 746 ;
747 [label="entropy = 0.0\nsamples = 1\nvalue = [1, 0]\nclass = No"] ;
746 -> 747 ;
748 [label="entropy = 0.0\nsamples = 2\nvalue = [0, 2]\nclass = Yes"] ;
746 -> 748 ;
749 [label="manner_of_death <= 0.5\nentropy = 0.863\nsamples = 7\nvalue = [5, 2]\nclass = No"] ;
745 -> 749 ;
750 [label="age <= 26.5\nentropy = 0.918\nsamples = 6\nvalue = [4, 2]\nclass = No"] ;
749 -> 750 ;
751 [label="entropy = 0.918\nsamples = 3\nvalue = [2, 1]\nclass = No"] ;
750 -> 751 ;
752 [label="entropy = 0.918\nsamples = 3\nvalue = [2, 1]\nclass = No"] ;
750 -> 752 ;
753 [label="entropy = 0.0\nsamples = 1\nvalue = [1, 0]\nclass = No"] ;
749 -> 753 ;
754 [label="manner_of_death <= 0.5\nentropy = 0.918\nsamples = 3\nvalue = [1, 2]\nclass = Yes"] ;
744 -> 754 ;
755 [label="entropy = 0.0\nsamples = 2\nvalue = [0, 2]\nclass = Yes"] ;
754 -> 755 ;
756 [label="entropy = 0.0\nsamples = 1\nvalue = [1, 0]\nclass = No"] ;
754 -> 756 ;
757 [label="entropy = 0.0\nsamples = 1\nvalue = [1, 0]\nclass = No"] ;
743 -> 757 ;
758 [label="race <= 1.5\nentropy = 0.863\nsamples = 7\nvalue = [2, 5]\nclass = Yes"] ;
742 -> 758 ;
759 [label="entropy = 0.0\nsamples = 2\nvalue = [0, 2]\nclass = Yes"] ;
758 -> 759 ;
760 [label="race <= 2.5\nentropy = 0.971\nsamples = 5\nvalue = [2, 3]\nclass = Yes"] ;
758 -> 760 ;
761 [label="age <= 28.5\nentropy = 1.0\nsamples = 4\nvalue = [2, 2]\nclass = No"] ;
760 -> 761 ;
762 [label="entropy = 0.0\nsamples = 1\nvalue = [0, 1]\nclass = Yes"] ;
761 -> 762 ;
763 [label="entropy = 0.918\nsamples = 3\nvalue = [2, 1]\nclass = No"] ;
761 -> 763 ;
764 [label="entropy = 0.0\nsamples = 1\nvalue = [0, 1]\nclass = Yes"] ;
760 -> 764 ;
765 [label="age <= 26.0\nentropy = 0.918\nsamples = 3\nvalue = [2, 1]\nclass = No"] ;
741 -> 765 ;
766 [label="entropy = 0.0\nsamples = 1\nvalue = [0, 1]\nclass = Yes"] ;
765 -> 766 ;
767 [label="entropy = 0.0\nsamples = 2\nvalue = [2, 0]\nclass = No"] ;
765 -> 767 ;
768 [label="body_camera <= 0.5\nentropy = 0.811\nsamples = 8\nvalue = [2, 6]\nclass = Yes"] ;
734 -> 768 ;
769 [label="entropy = 0.0\nsamples = 4\nvalue = [0, 4]\nclass = Yes"] ;
768 -> 769 ;
770 [label="race <= 1.5\nentropy = 1.0\nsamples = 4\nvalue = [2, 2]\nclass = No"] ;
768 -> 770 ;
771 [label="age <= 31.5\nentropy = 0.918\nsamples = 3\nvalue = [2, 1]\nclass = No"] ;
770 -> 771 ;
772 [label="manner_of_death <= 0.5\nentropy = 1.0\nsamples = 2\nvalue = [1, 1]\nclass = No"] ;
771 -> 772 ;
773 [label="entropy = 0.0\nsamples = 1\nvalue = [0, 1]\nclass = Yes"] ;
772 -> 773 ;
774 [label="entropy = 0.0\nsamples = 1\nvalue = [1, 0]\nclass = No"] ;
772 -> 774 ;
775 [label="entropy = 0.0\nsamples = 1\nvalue = [1, 0]\nclass = No"] ;
771 -> 775 ;
776 [label="entropy = 0.0\nsamples = 1\nvalue = [0, 1]\nclass = Yes"] ;
770 -> 776 ;
777 [label="entropy = 0.0\nsamples = 2\nvalue = [0, 2]\nclass = Yes"] ;
731 -> 777 ;
778 [label="race <= 0.5\nentropy = 0.977\nsamples = 56\nvalue = [33, 23]\nclass = No"] ;
730 -> 778 ;
779 [label="entropy = 0.0\nsamples = 3\nvalue = [3, 0]\nclass = No"] ;
778 -> 779 ;
780 [label="race <= 1.5\nentropy = 0.987\nsamples = 53\nvalue = [30, 23]\nclass = No"] ;
778 -> 780 ;
781 [label="age <= 42.5\nentropy = 0.937\nsamples = 17\nvalue = [6, 11]\nclass = Yes"] ;
780 -> 781 ;
782 [label="age <= 35.5\nentropy = 0.971\nsamples = 10\nvalue = [6, 4]\nclass = No"] ;
781 -> 782 ;
783 [label="entropy = 0.0\nsamples = 2\nvalue = [2, 0]\nclass = No"] ;
782 -> 783 ;
784 [label="body_camera <= 0.5\nentropy = 1.0\nsamples = 8\nvalue = [4, 4]\nclass = No"] ;
782 -> 784 ;
785 [label="armed <= 38.0\nentropy = 0.985\nsamples = 7\nvalue = [4, 3]\nclass = No"] ;
784 -> 785 ;
786 [label="entropy = 0.0\nsamples = 1\nvalue = [0, 1]\nclass = Yes"] ;
785 -> 786 ;
787 [label="manner_of_death <= 0.5\nentropy = 0.918\nsamples = 6\nvalue = [4, 2]\nclass = No"] ;
785 -> 787 ;
788 [label="age <= 39.0\nentropy = 0.722\nsamples = 5\nvalue = [4, 1]\nclass = No"] ;
787 -> 788 ;
789 [label="entropy = 0.0\nsamples = 2\nvalue = [2, 0]\nclass = No"] ;
788 -> 789 ;
790 [label="age <= 41.5\nentropy = 0.918\nsamples = 3\nvalue = [2, 1]\nclass = No"] ;
788 -> 790 ;
791 [label="entropy = 1.0\nsamples = 2\nvalue = [1, 1]\nclass = No"] ;
790 -> 791 ;
792 [label="entropy = 0.0\nsamples = 1\nvalue = [1, 0]\nclass = No"] ;
790 -> 792 ;
793 [label="entropy = 0.0\nsamples = 1\nvalue = [0, 1]\nclass = Yes"] ;
787 -> 793 ;
794 [label="entropy = 0.0\nsamples = 1\nvalue = [0, 1]\nclass = Yes"] ;
784 -> 794 ;
795 [label="entropy = 0.0\nsamples = 7\nvalue = [0, 7]\nclass = Yes"] ;
781 -> 795 ;
796 [label="age <= 44.5\nentropy = 0.918\nsamples = 36\nvalue = [24, 12]\nclass = No"] ;
780 -> 796 ;
797 [label="race <= 2.5\nentropy = 1.0\nsamples = 22\nvalue = [11, 11]\nclass = No"] ;
796 -> 797 ;
798 [label="age <= 41.5\nentropy = 0.993\nsamples = 20\nvalue = [9, 11]\nclass = Yes"] ;
797 -> 798 ;
799 [label="age <= 38.5\nentropy = 1.0\nsamples = 18\nvalue = [9, 9]\nclass = No"] ;
798 -> 799 ;
800 [label="body_camera <= 0.5\nentropy = 0.971\nsamples = 15\nvalue = [6, 9]\nclass = Yes"] ;
799 -> 800 ;
801 [label="age <= 36.5\nentropy = 0.89\nsamples = 13\nvalue = [4, 9]\nclass = Yes"] ;
800 -> 801 ;
802 [label="entropy = 0.0\nsamples = 5\nvalue = [0, 5]\nclass = Yes"] ;
801 -> 802 ;
803 [label="armed <= 42.0\nentropy = 1.0\nsamples = 8\nvalue = [4, 4]\nclass = No"] ;
801 -> 803 ;
804 [label="age <= 37.5\nentropy = 0.985\nsamples = 7\nvalue = [3, 4]\nclass = Yes"] ;
803 -> 804 ;
805 [label="manner_of_death <= 0.5\nentropy = 1.0\nsamples = 4\nvalue = [2, 2]\nclass = No"] ;
804 -> 805 ;
806 [label="entropy = 0.918\nsamples = 3\nvalue = [1, 2]\nclass = Yes"] ;
805 -> 806 ;
807 [label="entropy = 0.0\nsamples = 1\nvalue = [1, 0]\nclass = No"] ;
805 -> 807 ;
808 [label="manner_of_death <= 0.5\nentropy = 0.918\nsamples = 3\nvalue = [1, 2]\nclass = Yes"] ;
804 -> 808 ;
809 [label="entropy = 1.0\nsamples = 2\nvalue = [1, 1]\nclass = No"] ;
808 -> 809 ;
810 [label="entropy = 0.0\nsamples = 1\nvalue = [0, 1]\nclass = Yes"] ;
808 -> 810 ;
811 [label="entropy = 0.0\nsamples = 1\nvalue = [1, 0]\nclass = No"] ;
803 -> 811 ;
812 [label="entropy = 0.0\nsamples = 2\nvalue = [2, 0]\nclass = No"] ;
800 -> 812 ;
813 [label="entropy = 0.0\nsamples = 3\nvalue = [3, 0]\nclass = No"] ;
799 -> 813 ;
814 [label="entropy = 0.0\nsamples = 2\nvalue = [0, 2]\nclass = Yes"] ;
798 -> 814 ;
815 [label="entropy = 0.0\nsamples = 2\nvalue = [2, 0]\nclass = No"] ;
797 -> 815 ;
816 [label="age <= 53.5\nentropy = 0.371\nsamples = 14\nvalue = [13, 1]\nclass = No"] ;
796 -> 816 ;
817 [label="entropy = 0.0\nsamples = 12\nvalue = [12, 0]\nclass = No"] ;
816 -> 817 ;
818 [label="entropy = 1.0\nsamples = 2\nvalue = [1, 1]\nclass = No"] ;
816 -> 818 ;
819 [label="entropy = 0.0\nsamples = 5\nvalue = [0, 5]\nclass = Yes"] ;
705 -> 819 ;
820 [label="age <= 48.0\nentropy = 0.878\nsamples = 74\nvalue = [52, 22]\nclass = No"] ;
704 -> 820 ;
821 [label="age <= 45.0\nentropy = 0.852\nsamples = 72\nvalue = [52, 20]\nclass = No"] ;
820 -> 821 ;
822 [label="armed <= 67.5\nentropy = 0.879\nsamples = 67\nvalue = [47, 20]\nclass = No"] ;
821 -> 822 ;
823 [label="entropy = 0.0\nsamples = 5\nvalue = [5, 0]\nclass = No"] ;
822 -> 823 ;
824 [label="body_camera <= 0.5\nentropy = 0.907\nsamples = 62\nvalue = [42, 20]\nclass = No"] ;
822 -> 824 ;
825 [label="armed <= 74.5\nentropy = 0.863\nsamples = 56\nvalue = [40, 16]\nclass = No"] ;
824 -> 825 ;
826 [label="age <= 19.5\nentropy = 0.997\nsamples = 15\nvalue = [8, 7]\nclass = No"] ;
825 -> 826 ;
827 [label="entropy = 0.0\nsamples = 2\nvalue = [0, 2]\nclass = Yes"] ;
826 -> 827 ;
828 [label="age <= 39.0\nentropy = 0.961\nsamples = 13\nvalue = [8, 5]\nclass = No"] ;
826 -> 828 ;
829 [label="age <= 29.5\nentropy = 0.845\nsamples = 11\nvalue = [8, 3]\nclass = No"] ;
828 -> 829 ;
830 [label="age <= 21.5\nentropy = 1.0\nsamples = 6\nvalue = [3, 3]\nclass = No"] ;
829 -> 830 ;
831 [label="entropy = 0.0\nsamples = 3\nvalue = [3, 0]\nclass = No"] ;
830 -> 831 ;
832 [label="entropy = 0.0\nsamples = 3\nvalue = [0, 3]\nclass = Yes"] ;
830 -> 832 ;
833 [label="entropy = 0.0\nsamples = 5\nvalue = [5, 0]\nclass = No"] ;
829 -> 833 ;
834 [label="entropy = 0.0\nsamples = 2\nvalue = [0, 2]\nclass = Yes"] ;
828 -> 834 ;
835 [label="age <= 19.5\nentropy = 0.759\nsamples = 41\nvalue = [32, 9]\nclass = No"] ;
825 -> 835 ;
836 [label="entropy = 0.0\nsamples = 7\nvalue = [7, 0]\nclass = No"] ;
835 -> 836 ;
837 [label="age <= 35.5\nentropy = 0.834\nsamples = 34\nvalue = [25, 9]\nclass = No"] ;
835 -> 837 ;
838 [label="armed <= 75.5\nentropy = 0.894\nsamples = 29\nvalue = [20, 9]\nclass = No"] ;
837 -> 838 ;
839 [label="age <= 22.5\nentropy = 0.996\nsamples = 13\nvalue = [7, 6]\nclass = No"] ;
838 -> 839 ;
840 [label="entropy = 0.0\nsamples = 2\nvalue = [2, 0]\nclass = No"] ;
839 -> 840 ;
841 [label="race <= 1.5\nentropy = 0.994\nsamples = 11\nvalue = [5, 6]\nclass = Yes"] ;
839 -> 841 ;
842 [label="age <= 31.0\nentropy = 0.722\nsamples = 5\nvalue = [1, 4]\nclass = Yes"] ;
841 -> 842 ;
843 [label="age <= 26.0\nentropy = 0.918\nsamples = 3\nvalue = [1, 2]\nclass = Yes"] ;
842 -> 843 ;
844 [label="entropy = 0.0\nsamples = 1\nvalue = [0, 1]\nclass = Yes"] ;
843 -> 844 ;
845 [label="entropy = 1.0\nsamples = 2\nvalue = [1, 1]\nclass = No"] ;
843 -> 845 ;
846 [label="entropy = 0.0\nsamples = 2\nvalue = [0, 2]\nclass = Yes"] ;
842 -> 846 ;
847 [label="age <= 27.5\nentropy = 0.918\nsamples = 6\nvalue = [4, 2]\nclass = No"] ;
841 -> 847 ;
848 [label="age <= 23.5\nentropy = 1.0\nsamples = 4\nvalue = [2, 2]\nclass = No"] ;
847 -> 848 ;
849 [label="manner_of_death <= 0.5\nentropy = 0.918\nsamples = 3\nvalue = [2, 1]\nclass = No"] ;
848 -> 849 ;
850 [label="entropy = 1.0\nsamples = 2\nvalue = [1, 1]\nclass = No"] ;
849 -> 850 ;
851 [label="entropy = 0.0\nsamples = 1\nvalue = [1, 0]\nclass = No"] ;
849 -> 851 ;
852 [label="entropy = 0.0\nsamples = 1\nvalue = [0, 1]\nclass = Yes"] ;
848 -> 852 ;
853 [label="entropy = 0.0\nsamples = 2\nvalue = [2, 0]\nclass = No"] ;
847 -> 853 ;
854 [label="age <= 22.5\nentropy = 0.696\nsamples = 16\nvalue = [13, 3]\nclass = No"] ;
838 -> 854 ;
855 [label="entropy = 0.0\nsamples = 1\nvalue = [0, 1]\nclass = Yes"] ;
854 -> 855 ;
856 [label="age <= 32.5\nentropy = 0.567\nsamples = 15\nvalue = [13, 2]\nclass = No"] ;
854 -> 856 ;
857 [label="age <= 27.5\nentropy = 0.391\nsamples = 13\nvalue = [12, 1]\nclass = No"] ;
856 -> 857 ;
858 [label="race <= 1.5\nentropy = 0.722\nsamples = 5\nvalue = [4, 1]\nclass = No"] ;
857 -> 858 ;
859 [label="entropy = 0.0\nsamples = 4\nvalue = [4, 0]\nclass = No"] ;
858 -> 859 ;
860 [label="entropy = 0.0\nsamples = 1\nvalue = [0, 1]\nclass = Yes"] ;
858 -> 860 ;
861 [label="entropy = 0.0\nsamples = 8\nvalue = [8, 0]\nclass = No"] ;
857 -> 861 ;
862 [label="gender <= 0.5\nentropy = 1.0\nsamples = 2\nvalue = [1, 1]\nclass = No"] ;
856 -> 862 ;
863 [label="entropy = 0.0\nsamples = 1\nvalue = [1, 0]\nclass = No"] ;
862 -> 863 ;
864 [label="entropy = 0.0\nsamples = 1\nvalue = [0, 1]\nclass = Yes"] ;
862 -> 864 ;
865 [label="entropy = 0.0\nsamples = 5\nvalue = [5, 0]\nclass = No"] ;
837 -> 865 ;
866 [label="age <= 23.5\nentropy = 0.918\nsamples = 6\nvalue = [2, 4]\nclass = Yes"] ;
824 -> 866 ;
867 [label="entropy = 0.0\nsamples = 1\nvalue = [1, 0]\nclass = No"] ;
866 -> 867 ;
868 [label="armed <= 71.5\nentropy = 0.722\nsamples = 5\nvalue = [1, 4]\nclass = Yes"] ;
866 -> 868 ;
869 [label="age <= 32.5\nentropy = 1.0\nsamples = 2\nvalue = [1, 1]\nclass = No"] ;
868 -> 869 ;
870 [label="entropy = 0.0\nsamples = 1\nvalue = [0, 1]\nclass = Yes"] ;
869 -> 870 ;
871 [label="entropy = 0.0\nsamples = 1\nvalue = [1, 0]\nclass = No"] ;
869 -> 871 ;
872 [label="entropy = 0.0\nsamples = 3\nvalue = [0, 3]\nclass = Yes"] ;
868 -> 872 ;
873 [label="entropy = 0.0\nsamples = 5\nvalue = [5, 0]\nclass = No"] ;
821 -> 873 ;
874 [label="entropy = 0.0\nsamples = 2\nvalue = [0, 2]\nclass = Yes"] ;
820 -> 874 ;
875 [label="age <= 60.5\nentropy = 0.523\nsamples = 17\nvalue = [15, 2]\nclass = No"] ;
703 -> 875 ;
876 [label="entropy = 0.0\nsamples = 7\nvalue = [7, 0]\nclass = No"] ;
875 -> 876 ;
877 [label="age <= 63.5\nentropy = 0.722\nsamples = 10\nvalue = [8, 2]\nclass = No"] ;
875 -> 877 ;
878 [label="manner_of_death <= 0.5\nentropy = 1.0\nsamples = 4\nvalue = [2, 2]\nclass = No"] ;
877 -> 878 ;
879 [label="armed <= 58.0\nentropy = 0.918\nsamples = 3\nvalue = [2, 1]\nclass = No"] ;
878 -> 879 ;
880 [label="entropy = 0.0\nsamples = 1\nvalue = [1, 0]\nclass = No"] ;
879 -> 880 ;
881 [label="entropy = 1.0\nsamples = 2\nvalue = [1, 1]\nclass = No"] ;
879 -> 881 ;
882 [label="entropy = 0.0\nsamples = 1\nvalue = [0, 1]\nclass = Yes"] ;
878 -> 882 ;
883 [label="entropy = 0.0\nsamples = 6\nvalue = [6, 0]\nclass = No"] ;
877 -> 883 ;
884 [label="age <= 35.5\nentropy = 0.503\nsamples = 27\nvalue = [24, 3]\nclass = No"] ;
590 -> 884 ;
885 [label="entropy = 0.0\nsamples = 16\nvalue = [16, 0]\nclass = No"] ;
884 -> 885 ;
886 [label="age <= 62.0\nentropy = 0.845\nsamples = 11\nvalue = [8, 3]\nclass = No"] ;
884 -> 886 ;
887 [label="armed <= 76.5\nentropy = 0.722\nsamples = 10\nvalue = [8, 2]\nclass = No"] ;
886 -> 887 ;
888 [label="age <= 39.5\nentropy = 0.503\nsamples = 9\nvalue = [8, 1]\nclass = No"] ;
887 -> 888 ;
889 [label="entropy = 0.0\nsamples = 4\nvalue = [4, 0]\nclass = No"] ;
888 -> 889 ;
890 [label="age <= 42.5\nentropy = 0.722\nsamples = 5\nvalue = [4, 1]\nclass = No"] ;
888 -> 890 ;
891 [label="entropy = 1.0\nsamples = 2\nvalue = [1, 1]\nclass = No"] ;
890 -> 891 ;
892 [label="entropy = 0.0\nsamples = 3\nvalue = [3, 0]\nclass = No"] ;
890 -> 892 ;
893 [label="entropy = 0.0\nsamples = 1\nvalue = [0, 1]\nclass = Yes"] ;
887 -> 893 ;
894 [label="entropy = 0.0\nsamples = 1\nvalue = [0, 1]\nclass = Yes"] ;
886 -> 894 ;
895 [label="entropy = 0.0\nsamples = 14\nvalue = [14, 0]\nclass = No"] ;
589 -> 895 ;
896 [label="body_camera <= 0.5\nentropy = 0.948\nsamples = 1151\nvalue = [729, 422]\nclass = No"] ;
332 -> 896 ;
897 [label="armed <= 2.5\nentropy = 0.937\nsamples = 1042\nvalue = [674, 368]\nclass = No"] ;
896 -> 897 ;
898 [label="entropy = 0.0\nsamples = 9\nvalue = [9, 0]\nclass = No"] ;
897 -> 898 ;
899 [label="threat_level <= 0.5\nentropy = 0.94\nsamples = 1033\nvalue = [665, 368]\nclass = No"] ;
897 -> 899 ;
900 [label="age <= 54.5\nentropy = 0.914\nsamples = 693\nvalue = [465, 228]\nclass = No"] ;
899 -> 900 ;
901 [label="age <= 39.5\nentropy = 0.888\nsamples = 559\nvalue = [388, 171]\nclass = No"] ;
900 -> 901 ;
902 [label="armed <= 21.5\nentropy = 0.928\nsamples = 326\nvalue = [214, 112]\nclass = No"] ;
901 -> 902 ;
903 [label="entropy = 0.0\nsamples = 2\nvalue = [0, 2]\nclass = Yes"] ;
902 -> 903 ;
904 [label="armed <= 46.5\nentropy = 0.924\nsamples = 324\nvalue = [214, 110]\nclass = No"] ;
902 -> 904 ;
905 [label="age <= 15.5\nentropy = 0.897\nsamples = 268\nvalue = [184, 84]\nclass = No"] ;
904 -> 905 ;
906 [label="entropy = 0.0\nsamples = 1\nvalue = [0, 1]\nclass = Yes"] ;
905 -> 906 ;
907 [label="age <= 17.5\nentropy = 0.894\nsamples = 267\nvalue = [184, 83]\nclass = No"] ;
905 -> 907 ;
908 [label="entropy = 0.0\nsamples = 5\nvalue = [5, 0]\nclass = No"] ;
907 -> 908 ;
909 [label="age <= 38.5\nentropy = 0.901\nsamples = 262\nvalue = [179, 83]\nclass = No"] ;
907 -> 909 ;
910 [label="age <= 33.5\nentropy = 0.891\nsamples = 250\nvalue = [173, 77]\nclass = No"] ;
909 -> 910 ;
911 [label="armed <= 41.5\nentropy = 0.917\nsamples = 187\nvalue = [125, 62]\nclass = No"] ;
910 -> 911 ;
912 [label="gender <= 0.5\nentropy = 0.92\nsamples = 185\nvalue = [123, 62]\nclass = No"] ;
911 -> 912 ;
913 [label="age <= 30.5\nentropy = 0.722\nsamples = 10\nvalue = [8, 2]\nclass = No"] ;
912 -> 913 ;
914 [label="entropy = 0.0\nsamples = 6\nvalue = [6, 0]\nclass = No"] ;
913 -> 914 ;
915 [label="age <= 32.5\nentropy = 1.0\nsamples = 4\nvalue = [2, 2]\nclass = No"] ;
913 -> 915 ;
916 [label="flee <= 2.5\nentropy = 0.918\nsamples = 3\nvalue = [1, 2]\nclass = Yes"] ;
915 -> 916 ;
917 [label="entropy = 0.0\nsamples = 2\nvalue = [0, 2]\nclass = Yes"] ;
916 -> 917 ;
918 [label="entropy = 0.0\nsamples = 1\nvalue = [1, 0]\nclass = No"] ;
916 -> 918 ;
919 [label="entropy = 0.0\nsamples = 1\nvalue = [1, 0]\nclass = No"] ;
915 -> 919 ;
920 [label="age <= 28.5\nentropy = 0.928\nsamples = 175\nvalue = [115, 60]\nclass = No"] ;
912 -> 920 ;
921 [label="age <= 26.5\nentropy = 0.959\nsamples = 97\nvalue = [60, 37]\nclass = No"] ;
920 -> 921 ;
922 [label="race <= 4.5\nentropy = 0.918\nsamples = 72\nvalue = [48, 24]\nclass = No"] ;
921 -> 922 ;
923 [label="entropy = 0.0\nsamples = 1\nvalue = [1, 0]\nclass = No"] ;
922 -> 923 ;
924 [label="age <= 23.5\nentropy = 0.923\nsamples = 71\nvalue = [47, 24]\nclass = No"] ;
922 -> 924 ;
925 [label="manner_of_death <= 0.5\nentropy = 0.954\nsamples = 32\nvalue = [20, 12]\nclass = No"] ;
924 -> 925 ;
926 [label="age <= 22.5\nentropy = 0.971\nsamples = 30\nvalue = [18, 12]\nclass = No"] ;
925 -> 926 ;
927 [label="flee <= 2.5\nentropy = 0.918\nsamples = 24\nvalue = [16, 8]\nclass = No"] ;
926 -> 927 ;
928 [label="armed <= 35.5\nentropy = 0.887\nsamples = 23\nvalue = [16, 7]\nclass = No"] ;
927 -> 928 ;
929 [label="age <= 19.5\nentropy = 0.831\nsamples = 19\nvalue = [14, 5]\nclass = No"] ;
928 -> 929 ;
930 [label="age <= 18.5\nentropy = 0.971\nsamples = 5\nvalue = [3, 2]\nclass = No"] ;
929 -> 930 ;
931 [label="entropy = 0.918\nsamples = 3\nvalue = [2, 1]\nclass = No"] ;
930 -> 931 ;
932 [label="entropy = 1.0\nsamples = 2\nvalue = [1, 1]\nclass = No"] ;
930 -> 932 ;
933 [label="age <= 20.5\nentropy = 0.75\nsamples = 14\nvalue = [11, 3]\nclass = No"] ;
929 -> 933 ;
934 [label="entropy = 0.722\nsamples = 5\nvalue = [4, 1]\nclass = No"] ;
933 -> 934 ;
935 [label="age <= 21.5\nentropy = 0.764\nsamples = 9\nvalue = [7, 2]\nclass = No"] ;
933 -> 935 ;
936 [label="entropy = 0.811\nsamples = 4\nvalue = [3, 1]\nclass = No"] ;
935 -> 936 ;
937 [label="entropy = 0.722\nsamples = 5\nvalue = [4, 1]\nclass = No"] ;
935 -> 937 ;
938 [label="age <= 19.0\nentropy = 1.0\nsamples = 4\nvalue = [2, 2]\nclass = No"] ;
928 -> 938 ;
939 [label="entropy = 0.0\nsamples = 1\nvalue = [1, 0]\nclass = No"] ;
938 -> 939 ;
940 [label="age <= 21.0\nentropy = 0.918\nsamples = 3\nvalue = [1, 2]\nclass = Yes"] ;
938 -> 940 ;
941 [label="entropy = 0.0\nsamples = 1\nvalue = [0, 1]\nclass = Yes"] ;
940 -> 941 ;
942 [label="entropy = 1.0\nsamples = 2\nvalue = [1, 1]\nclass = No"] ;
940 -> 942 ;
943 [label="entropy = 0.0\nsamples = 1\nvalue = [0, 1]\nclass = Yes"] ;
927 -> 943 ;
944 [label="armed <= 35.5\nentropy = 0.918\nsamples = 6\nvalue = [2, 4]\nclass = Yes"] ;
926 -> 944 ;
945 [label="flee <= 2.5\nentropy = 0.722\nsamples = 5\nvalue = [1, 4]\nclass = Yes"] ;
944 -> 945 ;
946 [label="entropy = 0.0\nsamples = 3\nvalue = [0, 3]\nclass = Yes"] ;
945 -> 946 ;
947 [label="entropy = 1.0\nsamples = 2\nvalue = [1, 1]\nclass = No"] ;
945 -> 947 ;
948 [label="entropy = 0.0\nsamples = 1\nvalue = [1, 0]\nclass = No"] ;
944 -> 948 ;
949 [label="entropy = 0.0\nsamples = 2\nvalue = [2, 0]\nclass = No"] ;
925 -> 949 ;
950 [label="flee <= 2.5\nentropy = 0.89\nsamples = 39\nvalue = [27, 12]\nclass = No"] ;
924 -> 950 ;
951 [label="age <= 25.5\nentropy = 0.909\nsamples = 37\nvalue = [25, 12]\nclass = No"] ;
950 -> 951 ;
952 [label="age <= 24.5\nentropy = 0.863\nsamples = 21\nvalue = [15, 6]\nclass = No"] ;
951 -> 952 ;
953 [label="entropy = 0.946\nsamples = 11\nvalue = [7, 4]\nclass = No"] ;
952 -> 953 ;
954 [label="manner_of_death <= 0.5\nentropy = 0.722\nsamples = 10\nvalue = [8, 2]\nclass = No"] ;
952 -> 954 ;
955 [label="armed <= 35.5\nentropy = 0.544\nsamples = 8\nvalue = [7, 1]\nclass = No"] ;
954 -> 955 ;
956 [label="entropy = 0.65\nsamples = 6\nvalue = [5, 1]\nclass = No"] ;
955 -> 956 ;
957 [label="entropy = 0.0\nsamples = 2\nvalue = [2, 0]\nclass = No"] ;
955 -> 957 ;
958 [label="entropy = 1.0\nsamples = 2\nvalue = [1, 1]\nclass = No"] ;
954 -> 958 ;
959 [label="armed <= 35.5\nentropy = 0.954\nsamples = 16\nvalue = [10, 6]\nclass = No"] ;
951 -> 959 ;
960 [label="entropy = 0.94\nsamples = 14\nvalue = [9, 5]\nclass = No"] ;
959 -> 960 ;
961 [label="entropy = 1.0\nsamples = 2\nvalue = [1, 1]\nclass = No"] ;
959 -> 961 ;
962 [label="entropy = 0.0\nsamples = 2\nvalue = [2, 0]\nclass = No"] ;
950 -> 962 ;
963 [label="flee <= 2.5\nentropy = 0.999\nsamples = 25\nvalue = [12, 13]\nclass = Yes"] ;
921 -> 963 ;
964 [label="race <= 4.5\nentropy = 1.0\nsamples = 24\nvalue = [12, 12]\nclass = No"] ;
963 -> 964 ;
965 [label="entropy = 0.0\nsamples = 1\nvalue = [0, 1]\nclass = Yes"] ;
964 -> 965 ;
966 [label="armed <= 35.5\nentropy = 0.999\nsamples = 23\nvalue = [12, 11]\nclass = No"] ;
964 -> 966 ;
967 [label="age <= 27.5\nentropy = 0.993\nsamples = 20\nvalue = [11, 9]\nclass = No"] ;
966 -> 967 ;
968 [label="entropy = 0.946\nsamples = 11\nvalue = [7, 4]\nclass = No"] ;
967 -> 968 ;
969 [label="entropy = 0.991\nsamples = 9\nvalue = [4, 5]\nclass = Yes"] ;
967 -> 969 ;
970 [label="age <= 27.5\nentropy = 0.918\nsamples = 3\nvalue = [1, 2]\nclass = Yes"] ;
966 -> 970 ;
971 [label="entropy = 0.0\nsamples = 1\nvalue = [0, 1]\nclass = Yes"] ;
970 -> 971 ;
972 [label="entropy = 1.0\nsamples = 2\nvalue = [1, 1]\nclass = No"] ;
970 -> 972 ;
973 [label="entropy = 0.0\nsamples = 1\nvalue = [0, 1]\nclass = Yes"] ;
963 -> 973 ;
974 [label="race <= 4.5\nentropy = 0.875\nsamples = 78\nvalue = [55, 23]\nclass = No"] ;
920 -> 974 ;
975 [label="entropy = 0.0\nsamples = 2\nvalue = [2, 0]\nclass = No"] ;
974 -> 975 ;
976 [label="armed <= 37.0\nentropy = 0.884\nsamples = 76\nvalue = [53, 23]\nclass = No"] ;
974 -> 976 ;
977 [label="age <= 30.5\nentropy = 0.86\nsamples = 67\nvalue = [48, 19]\nclass = No"] ;
976 -> 977 ;
978 [label="armed <= 33.0\nentropy = 0.629\nsamples = 19\nvalue = [16, 3]\nclass = No"] ;
977 -> 978 ;
979 [label="age <= 29.5\nentropy = 0.65\nsamples = 18\nvalue = [15, 3]\nclass = No"] ;
978 -> 979 ;
980 [label="entropy = 0.503\nsamples = 9\nvalue = [8, 1]\nclass = No"] ;
979 -> 980 ;
981 [label="flee <= 2.5\nentropy = 0.764\nsamples = 9\nvalue = [7, 2]\nclass = No"] ;
979 -> 981 ;
982 [label="manner_of_death <= 0.5\nentropy = 0.811\nsamples = 8\nvalue = [6, 2]\nclass = No"] ;
981 -> 982 ;
983 [label="entropy = 0.863\nsamples = 7\nvalue = [5, 2]\nclass = No"] ;
982 -> 983 ;
984 [label="entropy = 0.0\nsamples = 1\nvalue = [1, 0]\nclass = No"] ;
982 -> 984 ;
985 [label="entropy = 0.0\nsamples = 1\nvalue = [1, 0]\nclass = No"] ;
981 -> 985 ;
986 [label="entropy = 0.0\nsamples = 1\nvalue = [1, 0]\nclass = No"] ;
978 -> 986 ;
987 [label="flee <= 2.5\nentropy = 0.918\nsamples = 48\nvalue = [32, 16]\nclass = No"] ;
977 -> 987 ;
988 [label="age <= 32.5\nentropy = 0.911\nsamples = 46\nvalue = [31, 15]\nclass = No"] ;
987 -> 988 ;
989 [label="age <= 31.5\nentropy = 0.906\nsamples = 28\nvalue = [19, 9]\nclass = No"] ;
988 -> 989 ;
990 [label="entropy = 0.918\nsamples = 15\nvalue = [10, 5]\nclass = No"] ;
989 -> 990 ;
991 [label="entropy = 0.89\nsamples = 13\nvalue = [9, 4]\nclass = No"] ;
989 -> 991 ;
992 [label="entropy = 0.918\nsamples = 18\nvalue = [12, 6]\nclass = No"] ;
988 -> 992 ;
993 [label="entropy = 1.0\nsamples = 2\nvalue = [1, 1]\nclass = No"] ;
987 -> 993 ;
994 [label="armed <= 39.5\nentropy = 0.991\nsamples = 9\nvalue = [5, 4]\nclass = No"] ;
976 -> 994 ;
995 [label="entropy = 0.0\nsamples = 1\nvalue = [0, 1]\nclass = Yes"] ;
994 -> 995 ;
996 [label="age <= 31.5\nentropy = 0.954\nsamples = 8\nvalue = [5, 3]\nclass = No"] ;
994 -> 996 ;
997 [label="age <= 30.5\nentropy = 0.863\nsamples = 7\nvalue = [5, 2]\nclass = No"] ;
996 -> 997 ;
998 [label="age <= 29.5\nentropy = 0.971\nsamples = 5\nvalue = [3, 2]\nclass = No"] ;
997 -> 998 ;
999 [label="entropy = 1.0\nsamples = 2\nvalue = [1, 1]\nclass = No"] ;
998 -> 999 ;
1000 [label="entropy = 0.918\nsamples = 3\nvalue = [2, 1]\nclass = No"] ;
998 -> 1000 ;
1001 [label="entropy = 0.0\nsamples = 2\nvalue = [2, 0]\nclass = No"] ;
997 -> 1001 ;
1002 [label="entropy = 0.0\nsamples = 1\nvalue = [0, 1]\nclass = Yes"] ;
996 -> 1002 ;
1003 [label="entropy = 0.0\nsamples = 2\nvalue = [2, 0]\nclass = No"] ;
911 -> 1003 ;
1004 [label="flee <= 2.5\nentropy = 0.792\nsamples = 63\nvalue = [48, 15]\nclass = No"] ;
910 -> 1004 ;
1005 [label="age <= 34.5\nentropy = 0.818\nsamples = 59\nvalue = [44, 15]\nclass = No"] ;
1004 -> 1005 ;
1006 [label="race <= 4.5\nentropy = 0.592\nsamples = 14\nvalue = [12, 2]\nclass = No"] ;
1005 -> 1006 ;
1007 [label="entropy = 0.0\nsamples = 1\nvalue = [1, 0]\nclass = No"] ;
1006 -> 1007 ;
1008 [label="armed <= 35.5\nentropy = 0.619\nsamples = 13\nvalue = [11, 2]\nclass = No"] ;
1006 -> 1008 ;
1009 [label="entropy = 0.65\nsamples = 12\nvalue = [10, 2]\nclass = No"] ;
1008 -> 1009 ;
1010 [label="entropy = 0.0\nsamples = 1\nvalue = [1, 0]\nclass = No"] ;
1008 -> 1010 ;
1011 [label="race <= 4.5\nentropy = 0.867\nsamples = 45\nvalue = [32, 13]\nclass = No"] ;
1005 -> 1011 ;
1012 [label="entropy = 0.0\nsamples = 1\nvalue = [0, 1]\nclass = Yes"] ;
1011 -> 1012 ;
1013 [label="gender <= 0.5\nentropy = 0.845\nsamples = 44\nvalue = [32, 12]\nclass = No"] ;
1011 -> 1013 ;
1014 [label="entropy = 0.0\nsamples = 2\nvalue = [2, 0]\nclass = No"] ;
1013 -> 1014 ;
1015 [label="armed <= 34.5\nentropy = 0.863\nsamples = 42\nvalue = [30, 12]\nclass = No"] ;
1013 -> 1015 ;
1016 [label="age <= 35.5\nentropy = 0.831\nsamples = 38\nvalue = [28, 10]\nclass = No"] ;
1015 -> 1016 ;
1017 [label="entropy = 0.722\nsamples = 10\nvalue = [8, 2]\nclass = No"] ;
1016 -> 1017 ;
1018 [label="age <= 37.5\nentropy = 0.863\nsamples = 28\nvalue = [20, 8]\nclass = No"] ;
1016 -> 1018 ;
1019 [label="age <= 36.5\nentropy = 0.881\nsamples = 20\nvalue = [14, 6]\nclass = No"] ;
1018 -> 1019 ;
1020 [label="entropy = 0.845\nsamples = 11\nvalue = [8, 3]\nclass = No"] ;
1019 -> 1020 ;
1021 [label="entropy = 0.918\nsamples = 9\nvalue = [6, 3]\nclass = No"] ;
1019 -> 1021 ;
1022 [label="entropy = 0.811\nsamples = 8\nvalue = [6, 2]\nclass = No"] ;
1018 -> 1022 ;
1023 [label="age <= 35.5\nentropy = 1.0\nsamples = 4\nvalue = [2, 2]\nclass = No"] ;
1015 -> 1023 ;
1024 [label="entropy = 0.0\nsamples = 1\nvalue = [0, 1]\nclass = Yes"] ;
1023 -> 1024 ;
1025 [label="armed <= 40.0\nentropy = 0.918\nsamples = 3\nvalue = [2, 1]\nclass = No"] ;
1023 -> 1025 ;
1026 [label="entropy = 0.0\nsamples = 1\nvalue = [0, 1]\nclass = Yes"] ;
1025 -> 1026 ;
1027 [label="entropy = 0.0\nsamples = 2\nvalue = [2, 0]\nclass = No"] ;
1025 -> 1027 ;
1028 [label="entropy = 0.0\nsamples = 4\nvalue = [4, 0]\nclass = No"] ;
1004 -> 1028 ;
1029 [label="armed <= 35.5\nentropy = 1.0\nsamples = 12\nvalue = [6, 6]\nclass = No"] ;
909 -> 1029 ;
1030 [label="entropy = 0.971\nsamples = 10\nvalue = [4, 6]\nclass = Yes"] ;
1029 -> 1030 ;
1031 [label="entropy = 0.0\nsamples = 2\nvalue = [2, 0]\nclass = No"] ;
1029 -> 1031 ;
1032 [label="armed <= 74.5\nentropy = 0.996\nsamples = 56\nvalue = [30, 26]\nclass = No"] ;
904 -> 1032 ;
1033 [label="age <= 23.5\nentropy = 0.896\nsamples = 32\nvalue = [10, 22]\nclass = Yes"] ;
1032 -> 1033 ;
1034 [label="age <= 17.5\nentropy = 0.918\nsamples = 6\nvalue = [4, 2]\nclass = No"] ;
1033 -> 1034 ;
1035 [label="entropy = 0.0\nsamples = 1\nvalue = [0, 1]\nclass = Yes"] ;
1034 -> 1035 ;
1036 [label="armed <= 73.5\nentropy = 0.722\nsamples = 5\nvalue = [4, 1]\nclass = No"] ;
1034 -> 1036 ;
1037 [label="entropy = 0.0\nsamples = 2\nvalue = [2, 0]\nclass = No"] ;
1036 -> 1037 ;
1038 [label="age <= 20.0\nentropy = 0.918\nsamples = 3\nvalue = [2, 1]\nclass = No"] ;
1036 -> 1038 ;
1039 [label="entropy = 0.0\nsamples = 2\nvalue = [2, 0]\nclass = No"] ;
1038 -> 1039 ;
1040 [label="entropy = 0.0\nsamples = 1\nvalue = [0, 1]\nclass = Yes"] ;
1038 -> 1040 ;
1041 [label="age <= 35.5\nentropy = 0.779\nsamples = 26\nvalue = [6, 20]\nclass = Yes"] ;
1033 -> 1041 ;
1042 [label="manner_of_death <= 0.5\nentropy = 0.845\nsamples = 22\nvalue = [6, 16]\nclass = Yes"] ;
1041 -> 1042 ;
1043 [label="age <= 24.5\nentropy = 0.881\nsamples = 20\nvalue = [6, 14]\nclass = Yes"] ;
1042 -> 1043 ;
1044 [label="entropy = 0.0\nsamples = 2\nvalue = [0, 2]\nclass = Yes"] ;
1043 -> 1044 ;
1045 [label="age <= 32.5\nentropy = 0.918\nsamples = 18\nvalue = [6, 12]\nclass = Yes"] ;
1043 -> 1045 ;
1046 [label="age <= 30.5\nentropy = 0.863\nsamples = 14\nvalue = [4, 10]\nclass = Yes"] ;
1045 -> 1046 ;
1047 [label="age <= 28.5\nentropy = 0.946\nsamples = 11\nvalue = [4, 7]\nclass = Yes"] ;
1046 -> 1047 ;
1048 [label="age <= 26.5\nentropy = 0.811\nsamples = 8\nvalue = [2, 6]\nclass = Yes"] ;
1047 -> 1048 ;
1049 [label="armed <= 73.5\nentropy = 0.918\nsamples = 6\nvalue = [2, 4]\nclass = Yes"] ;
1048 -> 1049 ;
1050 [label="entropy = 0.0\nsamples = 1\nvalue = [0, 1]\nclass = Yes"] ;
1049 -> 1050 ;
1051 [label="gender <= 0.5\nentropy = 0.971\nsamples = 5\nvalue = [2, 3]\nclass = Yes"] ;
1049 -> 1051 ;
1052 [label="age <= 25.5\nentropy = 1.0\nsamples = 2\nvalue = [1, 1]\nclass = No"] ;
1051 -> 1052 ;
1053 [label="entropy = 0.0\nsamples = 1\nvalue = [1, 0]\nclass = No"] ;
1052 -> 1053 ;
1054 [label="entropy = 0.0\nsamples = 1\nvalue = [0, 1]\nclass = Yes"] ;
1052 -> 1054 ;
1055 [label="age <= 25.5\nentropy = 0.918\nsamples = 3\nvalue = [1, 2]\nclass = Yes"] ;
1051 -> 1055 ;
1056 [label="entropy = 0.0\nsamples = 2\nvalue = [0, 2]\nclass = Yes"] ;
1055 -> 1056 ;
1057 [label="entropy = 0.0\nsamples = 1\nvalue = [1, 0]\nclass = No"] ;
1055 -> 1057 ;
1058 [label="entropy = 0.0\nsamples = 2\nvalue = [0, 2]\nclass = Yes"] ;
1048 -> 1058 ;
1059 [label="age <= 29.5\nentropy = 0.918\nsamples = 3\nvalue = [2, 1]\nclass = No"] ;
1047 -> 1059 ;
1060 [label="entropy = 0.0\nsamples = 1\nvalue = [1, 0]\nclass = No"] ;
1059 -> 1060 ;
1061 [label="entropy = 1.0\nsamples = 2\nvalue = [1, 1]\nclass = No"] ;
1059 -> 1061 ;
1062 [label="entropy = 0.0\nsamples = 3\nvalue = [0, 3]\nclass = Yes"] ;
1046 -> 1062 ;
1063 [label="age <= 33.5\nentropy = 1.0\nsamples = 4\nvalue = [2, 2]\nclass = No"] ;
1045 -> 1063 ;
1064 [label="entropy = 0.0\nsamples = 1\nvalue = [1, 0]\nclass = No"] ;
1063 -> 1064 ;
1065 [label="armed <= 73.5\nentropy = 0.918\nsamples = 3\nvalue = [1, 2]\nclass = Yes"] ;
1063 -> 1065 ;
1066 [label="entropy = 0.0\nsamples = 1\nvalue = [1, 0]\nclass = No"] ;
1065 -> 1066 ;
1067 [label="entropy = 0.0\nsamples = 2\nvalue = [0, 2]\nclass = Yes"] ;
1065 -> 1067 ;
1068 [label="entropy = 0.0\nsamples = 2\nvalue = [0, 2]\nclass = Yes"] ;
1042 -> 1068 ;
